{"learner":{"attributes":{"best_iteration":"99","best_ntree_limit":"100","scikit_learn":"{\"n_estimators\": 100, \"objective\": \"reg:squarederror\", \"max_depth\": null, \"max_leaves\": null, \"max_bin\": null, \"grow_policy\": null, \"learning_rate\": null, \"verbosity\": null, \"booster\": null, \"tree_method\": null, \"gamma\": null, \"min_child_weight\": null, \"max_delta_step\": null, \"subsample\": null, \"sampling_method\": null, \"colsample_bytree\": null, \"colsample_bylevel\": null, \"colsample_bynode\": null, \"reg_alpha\": null, \"reg_lambda\": null, \"scale_pos_weight\": null, \"base_score\": null, \"missing\": NaN, \"num_parallel_tree\": null, \"random_state\": null, \"n_jobs\": null, \"monotone_constraints\": null, \"interaction_constraints\": null, \"importance_type\": null, \"gpu_id\": null, \"validate_parameters\": null, \"predictor\": null, \"enable_categorical\": false, \"feature_types\": null, \"max_cat_to_onehot\": null, \"max_cat_threshold\": null, \"eval_metric\": null, \"early_stopping_rounds\": null, \"callbacks\": null, \"_estimator_type\": \"regressor\"}"},"feature_names":[],"feature_types":[],"gradient_booster":{"model":{"gbtree_model_param":{"num_parallel_tree":"1","num_trees":"100","size_leaf_vector":"0"},"tree_info":[0,0,0,0,0,0,0,0,0,0,0,0,0,0,0,0,0,0,0,0,0,0,0,0,0,0,0,0,0,0,0,0,0,0,0,0,0,0,0,0,0,0,0,0,0,0,0,0,0,0,0,0,0,0,0,0,0,0,0,0,0,0,0,0,0,0,0,0,0,0,0,0,0,0,0,0,0,0,0,0,0,0,0,0,0,0,0,0,0,0,0,0,0,0,0,0,0,0,0,0],"trees":[{"base_weights":[1.9226718E0,6.493342E-1,2.0207853E0,3.5472578E-1,9.9861306E-1,2.0065696E0,7.6666665E0,-0E0,4.9917898E-1,3.4117648E-1,1.0847723E0,2.8938715E0,1.97638E0,4.923077E0,8.384615E0,-3.8333333E-1,5.2272726E-2,6.154661E-1,9.7826086E-2,1.5454545E0,1.6E-1,1.0576606E0,1.5806452E0,1.942492E0,3.719888E0,2.035695E0,1.6304874E0,1.25E0,5.125E0,-4.7826087E-1,-6.25E-2,-0E0,4.107143E-1,9.54955E-1,5.096685E-1,2.0512821E-1,-4.7727272E-1,2.1875E0,-1.25E-1,-3.3333334E-1,5.3488374E-1,1.1076604E0,8.56E-1,1.9722222E0,9.6428573E-1,2.0687284E0,2.6086956E-1,3.7974138E0,6.5E-1,1.9879248E0,2.3361545E0,1.083426E0,1.8761904E0,3.75E-1,-4E-1,5.142857E-2,-4.7368422E-1,4.7727272E-1,1.4285715E-1,1.020202E0,3.846154E-1,5.489614E-1,-1.923077E-2,-8.77193E-2,4.7540984E-1,2.5E-1,-3.3333334E-1,-4.8E-1,1.1111111E-1,-8.3333336E-2,9.423077E-1,1.3904762E0,1.0263852E0,1.1944444E0,5.902778E-1,2.1333334E0,8.75E-1,3.3333334E-1,1.0416666E0,2.116981E0,1.5185186E0,4.2105263E-1,-4E-1,5.268293E0,3.5892856E0,1.4285715E-1,1.375E0,2.0255842E0,1.2998679E0,2.80177E0,2.1836207E0,1.8814433E-1,1.3279036E0,7.219731E-1,2.0203047E0],"categories":[],"categories_nodes":[],"categories_segments":[],"categories_sizes":[],"default_left":[1,1,1,1,1,1,1,1,1,1,1,1,1,1,0,1,1,1,1,1,1,1,1,1,1,1,1,0,0,0,1,1,1,1,1,1,0,0,1,1,1,1,1,1,1,1,1,1,1,1,1,1,1,0,0,0,0,0,0,0,0,0,0,0,0,0,0,0,0,0,0,0,0,0,0,0,0,0,0,0,0,0,0,0,0,0,0,0,0,0,0,0,0,0,0],"id":0,"left_children":[1,3,5,7,9,11,13,15,17,19,21,23,25,27,-1,29,31,33,35,37,39,41,43,45,47,49,51,-1,-1,-1,53,55,57,59,61,63,-1,-1,65,67,69,71,73,75,77,79,81,83,85,87,89,91,93,-1,-1,-1,-1,-1,-1,-1,-1,-1,-1,-1,-1,-1,-1,-1,-1,-1,-1,-1,-1,-1,-1,-1,-1,-1,-1,-1,-1,-1,-1,-1,-1,-1,-1,-1,-1,-1,-1,-1,-1,-1,-1],"loss_changes":[2.7500703E3,1.619198E2,1.6257109E3,4.3913773E1,4.0470398E1,5.4066406E2,5.9179443E1,5.0094695E0,2.8363144E1,1.829861E1,6.892029E0,5.185112E2,4.0145312E2,3.2355652E0,0E0,8.837862E-1,4.122078E0,1.6466156E1,8.613789E0,1.2071022E1,1.4048992E1,5.17218E0,5.5801315E0,6.590454E1,8.249609E1,2.3701562E2,3.868291E2,0E0,0E0,0E0,1.33125E0,4.726015E0,4.3100643E-1,3.7382584E0,7.533638E0,9.302404E0,0E0,0E0,3.9583334E-1,2.2044446E0,1.0909213E1,9.675049E0,1.05364685E1,1.3152847E0,3.3630848E-1,4.5112305E0,2.6032038E0,8.762402E1,3.4803572E0,3.7396484E2,1.5751758E2,1.9652002E2,3.303877E2,0E0,0E0,0E0,0E0,0E0,0E0,0E0,0E0,0E0,0E0,0E0,0E0,0E0,0E0,0E0,0E0,0E0,0E0,0E0,0E0,0E0,0E0,0E0,0E0,0E0,0E0,0E0,0E0,0E0,0E0,0E0,0E0,0E0,0E0,0E0,0E0,0E0,0E0,0E0,0E0,0E0,0E0],"parents":[2147483647,0,0,1,1,2,2,3,3,4,4,5,5,6,6,7,7,8,8,9,9,10,10,11,11,12,12,13,13,15,15,16,16,17,17,18,18,19,19,20,20,21,21,22,22,23,23,24,24,25,25,26,26,30,30,31,31,32,32,33,33,34,34,35,35,38,38,39,39,40,40,41,41,42,42,43,43,44,44,45,45,46,46,47,47,48,48,49,49,50,50,51,51,52,52],"right_children":[2,4,6,8,10,12,14,16,18,20,22,24,26,28,-1,30,32,34,36,38,40,42,44,46,48,50,52,-1,-1,-1,54,56,58,60,62,64,-1,-1,66,68,70,72,74,76,78,80,82,84,86,88,90,92,94,-1,-1,-1,-1,-1,-1,-1,-1,-1,-1,-1,-1,-1,-1,-1,-1,-1,-1,-1,-1,-1,-1,-1,-1,-1,-1,-1,-1,-1,-1,-1,-1,-1,-1,-1,-1,-1,-1,-1,-1,-1,-1],"split_conditions":[5.5E0,4.5E0,8.1481624E-1,3.5E0,1.0896301E0,6.4855E-1,8.766801E-1,8.518542E-1,4.4955254E-1,3.3867025E-1,2.07365E0,4.9165E-1,4.5436642E-1,2.3939962E-2,2.5153847E0,2.087E-1,1.48595E0,1.8E1,6.3839567E-1,1.1E-1,2.07365E0,2.9972988E-1,3.8712975E-1,4.692465E-1,7.6799905E-1,2.6532001E0,6.7625E-1,3.75E-1,1.5375E0,-1.4347827E-1,5.997577E-1,4.2136833E-1,2.3761501E0,1.8605955E0,3.7299627E-1,2.68065E0,-1.4318182E-1,6.5625E-1,5.6E-2,9.6650004E-2,7.986046E-1,8.400001E-3,3.51955E0,1.594412E0,3.9253294E-1,4.358247E-1,5.32354E-1,1.5353683E-1,9.964746E-2,3.885002E-1,1.0834188E0,8.042258E-1,4.9398673E-1,1.12500004E-1,-1.20000005E-1,1.5428572E-2,-1.4210527E-1,1.4318182E-1,4.2857148E-2,3.060606E-1,1.1538462E-1,1.6468842E-1,-5.7692314E-3,-2.6315792E-2,1.4262296E-1,7.5E-2,-1.0000001E-1,-1.4400001E-1,3.3333335E-2,-2.5000002E-2,2.826923E-1,4.171429E-1,3.0791557E-1,3.5833335E-1,1.7708334E-1,6.4000005E-1,2.6250002E-1,1.0000001E-1,3.125E-1,6.3509434E-1,4.555556E-1,1.263158E-1,-1.20000005E-1,1.580488E0,1.0767857E0,4.2857148E-2,4.1250002E-1,6.076753E-1,3.8996038E-1,8.4053105E-1,6.550862E-1,5.64433E-2,3.983711E-1,2.1659194E-1,6.0609144E-1],"split_indices":[65,65,63,65,64,54,63,64,63,63,10,29,63,64,0,0,20,33,63,4,10,63,63,63,63,23,27,0,0,0,63,63,11,64,63,32,0,0,0,4,64,53,2,64,63,63,63,64,64,63,64,64,64,0,0,0,0,0,0,0,0,0,0,0,0,0,0,0,0,0,0,0,0,0,0,0,0,0,0,0,0,0,0,0,0,0,0,0,0,0,0,0,0,0,0],"split_type":[0,0,0,0,0,0,0,0,0,0,0,0,0,0,0,0,0,0,0,0,0,0,0,0,0,0,0,0,0,0,0,0,0,0,0,0,0,0,0,0,0,0,0,0,0,0,0,0,0,0,0,0,0,0,0,0,0,0,0,0,0,0,0,0,0,0,0,0,0,0,0,0,0,0,0,0,0,0,0,0,0,0,0,0,0,0,0,0,0,0,0,0,0,0,0],"sum_hessian":[2.2022E4,1.576E3,2.0446E4,8.56E2,7.2E2,2.0396E4,5E1,2.48E2,6.08E2,8.4E1,6.36E2,6.68E2,1.9728E4,1.2E1,3.8E1,2.9E1,2.19E2,4.71E2,1.37E2,1E1,7.4E1,6.06E2,3E1,3.12E2,3.56E2,1.6836E4,2.892E3,1E0,1.1E1,2.2E1,7E0,1.92E2,2.7E1,1.1E2,3.61E2,1.16E2,2.1E1,7E0,3E0,3.2E1,4.2E1,4.82E2,1.24E2,1.7E1,1.3E1,2.9E2,2.2E1,3.47E2,9E0,1.4533E4,2.303E3,8.98E2,1.994E3,3E0,4E0,1.74E2,1.8E1,2.1E1,6E0,9.8E1,1.2E1,3.36E2,2.5E1,5.6E1,6E1,1E0,2E0,2.4E1,8E0,1.7E1,2.5E1,1.04E2,3.78E2,5.3E1,7.1E1,1.4E1,3E0,2E0,1.1E1,2.64E2,2.6E1,1.8E1,4E0,4E1,3.07E2,6E0,3E0,1.3777E4,7.56E2,5.64E2,1.739E3,1.93E2,7.05E2,2.22E2,1.772E3],"tree_param":{"num_deleted":"0","num_feature":"66","num_nodes":"95","size_leaf_vector":"0"}},{"base_weights":[1.3466069E0,6.372603E-1,1.4388871E0,2.4884702E-1,8.349004E-1,1.4282794E0,5.453488E0,-3.6791267E-4,3.5033417E-1,9.1713685E-1,4.3395403E-1,2.0823417E0,1.4060429E0,3.5932693E0,5.9337277E0,-2.7336594E-1,3.6860764E-2,3.5250578E-2,4.3328097E-1,8.2284516E-1,1.360375E0,-1.3717292E-2,5.9450465E-1,1.4012063E0,2.6126404E0,1.4478633E0,1.1295956E0,1.0625E0,3.715625E0,-3.410208E-1,-4.4687502E-2,-6.563287E-4,2.9414424E-1,7.342698E-1,-4.3391667E-2,5.044939E-1,1.7591736E-1,7.2588384E-1,9.12708E-1,1.526577E0,9.101997E-1,-4.142168E-1,4.7871688E-1,-1.7564838E-1,6.6686755E-1,1.4644747E0,1.81614E-1,2.4960697E0,4.4520535E0,1.6546998E0,1.4097441E0,2.5318298E-1,1.2485332E0,2.9062498E-1,-3.04E-1,3.608819E-2,-3.3905816E-1,3.4059918E-1,1.0612243E-1,1.1028199E0,-3.706731E-1,-4.591843E-1,8.182825E-2,4.1820353E-1,6.4758396E-1,1.421486E-1,1.0014837E0,7.6483136E-1,5.087348E-1,8.907755E-1,1.5295707E0,1.994049E0,1.2416463E0,5.8220637E-1,1.2828948E0,-2.502598E-1,-8.684317E-1,6.6164297E-1,1.9070587E-1,9.920105E-2,-4.3293297E-1,4.9644986E-1,1.0677584E0,1.8129354E0,1.350243E0,2.0861214E-2,4.9894732E-1,2.5491374E0,5.005357E-1,5.4616666E0,1.186012E0,1.8835741E0,1.5724678E0,1.4439145E0,1.1537017E0,2.3418307E-2,1.0266049E0,1.5511084E0,1.0103045E0],"categories":[],"categories_nodes":[],"categories_segments":[],"categories_sizes":[],"default_left":[1,1,1,1,1,1,1,1,1,1,1,1,1,1,0,1,1,1,1,1,1,1,1,1,1,1,1,0,0,0,1,1,1,1,1,1,1,1,1,1,1,1,1,1,1,1,1,1,1,1,1,1,1,0,0,0,0,0,0,0,0,0,0,0,0,0,0,0,0,0,0,0,0,0,0,0,0,0,0,0,0,0,0,0,0,0,0,0,0,0,0,0,0,0,0,0,0,0,0],"id":1,"left_children":[1,3,5,7,9,11,13,15,17,19,21,23,25,27,-1,29,31,33,35,37,39,41,43,45,47,49,51,-1,-1,-1,53,55,57,59,61,63,65,67,69,71,73,75,77,79,81,83,85,87,89,91,93,95,97,-1,-1,-1,-1,-1,-1,-1,-1,-1,-1,-1,-1,-1,-1,-1,-1,-1,-1,-1,-1,-1,-1,-1,-1,-1,-1,-1,-1,-1,-1,-1,-1,-1,-1,-1,-1,-1,-1,-1,-1,-1,-1,-1,-1,-1,-1],"loss_changes":[1.4406836E3,1.945476E2,8.220781E2,2.1675468E1,5.5028687E1,2.7976562E2,2.4239502E1,2.540752E0,1.5901039E1,5.714099E1,2.0707844E1,2.2642676E2,2.1572656E2,7.765198E-2,0E0,4.4889665E-1,2.1237495E0,7.068333E0,8.745155E0,9.375061E0,1.6791779E1,1.5384205E1,1.1932007E1,2.1416504E1,6.5436035E1,1.2639844E2,2.5767383E2,0E0,0E0,0E0,7.8395575E-1,2.4120777E0,2.084217E-1,5.7027354E0,6.0771747E0,4.384117E0,2.8127463E0,4.338623E0,6.67395E0,2.0966766E1,7.5655174E0,2.98495E0,1.7177868E0,1.3865235E0,1.272377E1,8.180054E0,7.547746E-1,3.451758E1,5.947119E1,4.4748535E1,1.1901172E2,5.275436E1,1.5549976E2,0E0,0E0,0E0,0E0,0E0,0E0,0E0,0E0,0E0,0E0,0E0,0E0,0E0,0E0,0E0,0E0,0E0,0E0,0E0,0E0,0E0,0E0,0E0,0E0,0E0,0E0,0E0,0E0,0E0,0E0,0E0,0E0,0E0,0E0,0E0,0E0,0E0,0E0,0E0,0E0,0E0,0E0,0E0,0E0,0E0,0E0],"parents":[2147483647,0,0,1,1,2,2,3,3,4,4,5,5,6,6,7,7,8,8,9,9,10,10,11,11,12,12,13,13,15,15,16,16,17,17,18,18,19,19,20,20,21,21,22,22,23,23,24,24,25,25,26,26,30,30,31,31,32,32,33,33,34,34,35,35,36,36,37,37,38,38,39,39,40,40,41,41,42,42,43,43,44,44,45,45,46,46,47,47,48,48,49,49,50,50,51,51,52,52],"right_children":[2,4,6,8,10,12,14,16,18,20,22,24,26,28,-1,30,32,34,36,38,40,42,44,46,48,50,52,-1,-1,-1,54,56,58,60,62,64,66,68,70,72,74,76,78,80,82,84,86,88,90,92,94,96,98,-1,-1,-1,-1,-1,-1,-1,-1,-1,-1,-1,-1,-1,-1,-1,-1,-1,-1,-1,-1,-1,-1,-1,-1,-1,-1,-1,-1,-1,-1,-1,-1,-1,-1,-1,-1,-1,-1,-1,-1,-1,-1,-1,-1,-1,-1],"split_conditions":[6.5E0,4.5E0,8.1481624E-1,3.5E0,3.7567654E-1,6.4855E-1,8.766801E-1,8.518542E-1,9.9727905E-1,1.9988E0,7.9908E0,4.9165E-1,4.6949214E-1,2.3939962E-2,1.7801183E0,2.087E-1,1.48595E0,4.1592872E-1,2.5626054E0,5.5E0,1.9065728E0,1.0897484E0,6.2361526E-1,4.692465E-1,1.532549E0,1.25E1,4.22325E0,3.1875002E-1,1.1146876E0,-1.0230624E-1,5.997577E-1,4.2136833E-1,2.3761501E0,3.7914E0,1.074E-1,2.205E-2,8.714432E0,2.9972988E-1,6.518587E0,3.035171E-1,6.397545E1,7.10161E1,2.589E-1,3.33945E0,4.28155E0,1.3134787E0,8.9011514E-1,7.6799905E-1,1.7176726E0,3.286368E-1,3.5359317E-1,1.0911192E0,5.482183E-1,8.71875E-2,-9.12E-2,1.0826457E-2,-1.0171745E-1,1.0217976E-1,3.183673E-2,3.3084598E-1,-1.11201935E-1,-1.3775529E-1,2.4548477E-2,1.2546107E-1,1.942752E-1,4.2644583E-2,3.004451E-1,2.2944942E-1,1.5262045E-1,2.6723266E-1,4.5887122E-1,5.982147E-1,3.724939E-1,1.7466192E-1,3.8486847E-1,-7.5077936E-2,-2.6052952E-1,1.984929E-1,5.721176E-2,2.9760318E-2,-1.2987989E-1,1.4893496E-1,3.2032755E-1,5.4388064E-1,4.050729E-1,6.2583643E-3,1.496842E-1,7.6474124E-1,1.5016073E-1,1.6385001E0,3.558036E-1,5.6507224E-1,4.7174037E-1,4.3317437E-1,3.4611052E-1,7.0254924E-3,3.079815E-1,4.6533254E-1,3.0309135E-1],"split_indices":[65,65,63,65,63,54,63,64,64,23,13,29,63,64,0,0,20,63,64,65,64,64,64,63,64,40,19,0,0,0,63,63,11,2,0,43,64,63,64,63,7,7,8,2,19,64,64,63,64,63,63,64,63,0,0,0,0,0,0,0,0,0,0,0,0,0,0,0,0,0,0,0,0,0,0,0,0,0,0,0,0,0,0,0,0,0,0,0,0,0,0,0,0,0,0,0,0,0,0],"split_type":[0,0,0,0,0,0,0,0,0,0,0,0,0,0,0,0,0,0,0,0,0,0,0,0,0,0,0,0,0,0,0,0,0,0,0,0,0,0,0,0,0,0,0,0,0,0,0,0,0,0,0,0,0,0,0,0,0,0,0,0,0,0,0,0,0,0,0,0,0,0,0,0,0,0,0,0,0,0,0,0,0,0,0,0,0,0,0,0,0,0,0,0,0,0,0,0,0,0,0],"sum_hessian":[2.2022E4,2.536E3,1.9486E4,8.56E2,1.68E3,1.9436E4,5E1,2.48E2,6.08E2,1.393E3,2.87E2,6.36E2,1.88E4,1.2E1,3.8E1,2.9E1,2.19E2,1.27E2,4.81E2,1.151E3,2.42E2,7.6E1,2.11E2,2.8E2,3.56E2,1.6326E4,2.474E3,1E0,1.1E1,2.2E1,7E0,1.92E2,2.7E1,1.2E1,1.15E2,3.76E2,1.05E2,5.58E2,5.93E2,1.75E2,6.7E1,4.2E1,3.4E1,1.8E1,1.93E2,2.66E2,1.4E1,3.37E2,1.9E1,2.534E3,1.3792E4,2.96E2,2.178E3,3E0,4E0,1.74E2,1.8E1,2.1E1,6E0,9E0,3E0,2.6E1,8.9E1,2.37E2,1.39E2,1.02E2,3E0,4.71E2,8.7E1,5.75E2,1.8E1,6.4E1,1.11E2,3.7E1,3E1,3.2E1,1E1,2E1,1.4E1,9E0,9E0,1.37E2,5.6E1,6.2E1,2.04E2,1E1,4E0,3.28E2,9E0,1.4E1,5E0,6.64E2,1.87E3,1.2164E4,1.628E3,2.29E2,6.7E1,9.57E2,1.221E3],"tree_param":{"num_deleted":"0","num_feature":"66","num_nodes":"99","size_leaf_vector":"0"}},{"base_weights":[9.4324964E-1,4.475145E-1,1.0077406E0,1.7501679E-1,5.8617187E-1,1.0001513E0,3.8804524E0,-5.1133486E-4,2.4649706E-1,6.298858E-1,1.5480256E-1,1.4639406E0,9.843843E-1,2.846103E0,4.4559646E0,2.3139687E-2,-2.8803107E-1,2.6892075E-1,-3.6403182E-1,5.880952E-1,1.0299437E0,-4.7597808E-1,3.3449534E-1,9.847764E-1,1.8369973E0,3.3645374E-1,9.9669254E-1,-1.3042539E-2,2.4062827E-1,2.2812082E-1,-4.8866537E-1,3.144332E-1,1.1680008E-1,6.2182456E-1,2.4339855E-1,1.5316211E0,9.40722E-1,-5.3226125E-1,3.0179596E-1,7.324284E-1,2.1368882E-1,1.0708948E0,3.8791648E-1,1.7499555E0,3.2161527E0,-1.5082331E-1,8.7715477E-1,9.836584E-1,1.3200307E0,-3.8750455E-1,8.820555E-3,3.7860096E-1,-2.3786145E-1,-2.631275E-1,3.7899598E-1,2.5036713E-1,5.881022E-1,-6.006128E-2,2.9714558E-1,5.830381E-1,9.5448345E-1,5.1427543E-1,-4.923092E-2,-5.022006E-1,1.7855014E0,1.0658206E0,6.1776537E-1,-7.256072E-1,-2.5187224E-1,4.7634697E-1,-2.365303E-2,8.4142715E-2,1.2133837E0,4.4057554E-1,-8.311052E-2,9.158849E-1,1.410039E0,9.365791E-2,8.1325185E-1,1.9843146E0,1.2182988E0,3.9324E0,8.895089E-1,-7.821132E-1,7.442327E-2,1.4344921E0,2.0709178E-1,-3.618141E-2,9.962316E-1,1.6108025E0,9.526311E-1],"categories":[],"categories_nodes":[],"categories_segments":[],"categories_sizes":[],"default_left":[1,1,1,1,1,1,1,1,1,1,1,1,1,0,0,1,1,1,0,1,1,1,1,1,1,1,1,1,1,1,0,1,1,1,1,1,1,1,1,1,1,1,1,1,1,1,1,1,1,0,0,0,0,0,0,0,0,0,0,0,0,0,0,0,0,0,0,0,0,0,0,0,0,0,0,0,0,0,0,0,0,0,0,0,0,0,0,0,0,0,0],"id":2,"left_children":[1,3,5,7,9,11,13,15,17,19,21,23,25,-1,-1,27,29,31,-1,33,35,37,39,41,43,45,47,49,51,53,-1,55,57,59,61,63,65,67,69,71,73,75,77,79,81,83,85,87,89,-1,-1,-1,-1,-1,-1,-1,-1,-1,-1,-1,-1,-1,-1,-1,-1,-1,-1,-1,-1,-1,-1,-1,-1,-1,-1,-1,-1,-1,-1,-1,-1,-1,-1,-1,-1,-1,-1,-1,-1,-1,-1],"loss_changes":[7.036367E2,9.5754944E1,4.2097852E2,1.0752729E1,3.160083E1,1.406914E2,1.7677185E1,1.6998987E0,8.435299E0,2.4906921E1,1.7841303E1,1.12058105E2,1.4960156E2,0E0,0E0,1.8209285E0,2.0790725E0,4.0342216E0,0E0,1.5939636E1,4.959915E0,1.6927791E0,5.7083836E0,1.4028168E1,3.722766E1,9.287415E1,7.6458984E1,1.6326108E0,2.2686653E0,5.444274E-1,0E0,7.777626E0,4.387619E0,1.5700836E1,9.933639E0,1.1223621E1,4.351349E0,1.6062374E0,1.8168941E-1,8.628202E0,6.4339E0,1.1588379E1,4.5547004E0,3.96969E1,2.9831146E1,2.6506638E1,6.206926E1,2.2749805E2,7.4528076E1,0E0,0E0,0E0,0E0,0E0,0E0,0E0,0E0,0E0,0E0,0E0,0E0,0E0,0E0,0E0,0E0,0E0,0E0,0E0,0E0,0E0,0E0,0E0,0E0,0E0,0E0,0E0,0E0,0E0,0E0,0E0,0E0,0E0,0E0,0E0,0E0,0E0,0E0,0E0,0E0,0E0,0E0],"parents":[2147483647,0,0,1,1,2,2,3,3,4,4,5,5,6,6,7,7,8,8,9,9,10,10,11,11,12,12,15,15,16,16,17,17,19,19,20,20,21,21,22,22,23,23,24,24,25,25,26,26,27,27,28,28,29,29,31,31,32,32,33,33,34,34,35,35,36,36,37,37,38,38,39,39,40,40,41,41,42,42,43,43,44,44,45,45,46,46,47,47,48,48],"right_children":[2,4,6,8,10,12,14,16,18,20,22,24,26,-1,-1,28,30,32,-1,34,36,38,40,42,44,46,48,50,52,54,-1,56,58,60,62,64,66,68,70,72,74,76,78,80,82,84,86,88,90,-1,-1,-1,-1,-1,-1,-1,-1,-1,-1,-1,-1,-1,-1,-1,-1,-1,-1,-1,-1,-1,-1,-1,-1,-1,-1,-1,-1,-1,-1,-1,-1,-1,-1,-1,-1,-1,-1,-1,-1,-1,-1],"split_conditions":[6.5E0,4.5E0,8.1481624E-1,3.5E0,4.291311E-1,6.4855E-1,9.1237974E-1,3.2933273E0,6.3839567E-1,3.5086E0,3.50525E0,4.9165E-1,5.4503447E-1,8.5383093E-1,1.3367894E0,2.1668084E0,4.053847E-2,4.2031685E-1,-1.0920955E-1,3.5596743E-1,-7.29E-1,1.3749177E0,1.9595E-1,4.358247E-1,1.532549E0,2.20965E0,2.8208351E1,2.176E-1,5.2125E-1,6.6051334E-3,-1.4659962E-1,3.1362E0,2.68065E0,1.9988E0,7.6094997E-1,2.8862277E-1,3.856542E-1,4.38E-2,4.6490064E-1,6.839049E-1,5.1319563E-1,2.890433E-1,7.8549996E-2,7.7350354E-1,1.7176726E0,5.1433E0,7.0502925E-1,6.759671E-1,7.849184E-1,-1.1625137E-1,2.6461666E-3,1.13580294E-1,-7.135844E-2,-7.893825E-2,1.136988E-1,7.5110145E-2,1.7643067E-1,-1.8018385E-2,8.914368E-2,1.7491144E-1,2.8634503E-1,1.5428263E-1,-1.4769276E-2,-1.5066019E-1,5.3565043E-1,3.197462E-1,1.8532962E-1,-2.1768217E-1,-7.556167E-2,1.429041E-1,-7.095909E-3,2.5242815E-2,3.640151E-1,1.3217267E-1,-2.4933157E-2,2.747655E-1,4.230117E-1,2.8097374E-2,2.4397556E-1,5.952944E-1,3.6548966E-1,1.17972E0,2.6685268E-1,-2.3463397E-1,2.2326982E-2,4.3034765E-1,6.2127534E-2,-1.0854423E-2,2.988695E-1,4.8324078E-1,2.8578934E-1],"split_indices":[65,65,63,65,63,54,63,64,63,45,19,29,64,0,0,64,63,63,0,63,21,64,8,63,64,27,12,10,10,63,0,19,32,23,54,63,63,51,63,64,63,63,0,64,64,23,63,64,64,0,0,0,0,0,0,0,0,0,0,0,0,0,0,0,0,0,0,0,0,0,0,0,0,0,0,0,0,0,0,0,0,0,0,0,0,0,0,0,0,0,0],"split_type":[0,0,0,0,0,0,0,0,0,0,0,0,0,0,0,0,0,0,0,0,0,0,0,0,0,0,0,0,0,0,0,0,0,0,0,0,0,0,0,0,0,0,0,0,0,0,0,0,0,0,0,0,0,0,0,0,0,0,0,0,0,0,0,0,0,0,0,0,0,0,0,0,0,0,0,0,0,0,0,0,0,0,0,0,0,0,0,0,0,0,0],"sum_hessian":[2.2022E4,2.536E3,1.9486E4,8.56E2,1.68E3,1.9436E4,5E1,2.48E2,6.08E2,1.525E3,1.55E2,6.36E2,1.88E4,2E1,3E1,2.3E2,1.8E1,5.87E2,2.1E1,1.383E3,1.42E2,3.4E1,1.21E2,2.8E2,3.56E2,3.51E2,1.8449E4,1.98E2,3.2E1,5E0,1.3E1,4.51E2,1.36E2,1.259E3,1.24E2,1.9E1,1.23E2,3.2E1,2E0,2.7E1,9.4E1,2.44E2,3.6E1,3.37E2,1.9E1,1.85E2,1.66E2,1.7738E4,7.11E2,1E1,1.88E2,2.5E1,7E0,1E0,4E0,3.67E2,8.4E1,6.9E1,6.7E1,1.13E3,1.29E2,6.4E1,6E1,2E0,1.7E1,8.7E1,3.6E1,1.8E1,1.4E1,1E0,1E0,1.2E1,1.5E1,5.3E1,4.1E1,1.7E2,7.4E1,2.2E1,1.4E1,2.32E2,1.05E2,1.4E1,5E0,4.8E1,1.37E2,9E1,7.6E1,2.16E2,1.7522E4,3.95E2,3.16E2],"tree_param":{"num_deleted":"0","num_feature":"66","num_nodes":"91","size_leaf_vector":"0"}},{"base_weights":[6.606727E-1,3.1399333E-1,7.0577276E-1,1.2254702E-1,4.1140884E-1,7.003484E-1,2.75927E0,1.6765793E-1,-1.9013735E-2,1.762451E-1,4.592924E-1,1.8617116E0,6.968967E-1,2.118384E0,3.3410559E0,1.32213E-1,4.846283E-1,1.5990315E-2,-2.646571E-1,7.630321E-1,8.050531E-2,3.9063814E-1,6.1365384E-1,4.0381706E-1,2.4207969E0,7.3128015E-1,5.8888566E-1,2.3869586E0,7.8054625E-1,1.1044111E-2,1.8211381E-1,5.90393E-1,5.717165E-2,-6.7094885E-2,2.3833884E-1,1.1726522E0,-8.145198E-2,2.438234E-1,-4.6816593E-1,3.7636796E-1,1.0169117E0,7.417958E-1,4.7326174E-1,2.2995636E0,-5.7770765E-1,4.163979E0,1.8720262E0,9.4101375E-1,6.7785805E-1,7.259279E-2,6.8617964E-1,-3.009081E-3,9.378592E-1,-5.361361E-2,3.188778E-1,-1.2217939E-2,2.4222967E-1,3.6663347E-1,6.48355E-1,-6.325749E-1,3.0279115E-1,-2.2726156E-1,5.081019E-2,-4.598764E-1,2.6197335E-1,1.4176333E0,2.7018735E-1,-2.3257628E-1,5.501959E-1,4.791239E-1,6.9921024E-2,-6.1059004E-1,-6.504226E-2,2.4732631E-1,4.1636255E-1,-4.7565746E-1,1.3960843E0,6.903308E-1,1.66623E0,5.7616407E-1,6.739783E-2,2.6696072E0,1.0396509E0,-8.039272E-2,-7.345468E-1,-1.2202618E0,2.0067935E0,1.2710739E0,7.282748E-1,-1.3214773E-1,6.890835E-1,-1.4633481E-1,8.8549095E-1,8.6717504E-1,6.118673E-1],"categories":[],"categories_nodes":[],"categories_segments":[],"categories_sizes":[],"default_left":[1,1,1,1,1,1,1,1,1,1,1,1,1,1,0,1,1,1,0,1,1,1,1,1,1,1,1,0,1,1,1,1,1,1,1,1,1,1,1,1,1,1,1,1,1,0,1,1,1,1,1,0,0,0,0,0,0,0,0,0,0,0,0,0,0,0,0,0,0,0,0,0,0,0,0,0,0,0,0,0,0,0,0,0,0,0,0,0,0,0,0,0,0,0,0],"id":3,"left_children":[1,3,5,7,9,11,13,15,17,19,21,23,25,27,-1,29,31,33,-1,35,37,39,41,43,45,47,49,-1,51,53,55,57,59,61,63,65,67,69,71,73,75,77,79,81,83,-1,85,87,89,91,93,-1,-1,-1,-1,-1,-1,-1,-1,-1,-1,-1,-1,-1,-1,-1,-1,-1,-1,-1,-1,-1,-1,-1,-1,-1,-1,-1,-1,-1,-1,-1,-1,-1,-1,-1,-1,-1,-1,-1,-1,-1,-1,-1,-1],"loss_changes":[3.4411328E2,4.726422E1,2.1513281E2,5.475936E0,1.88479E1,7.662012E1,1.1938141E1,7.2386723E0,1.7927225E0,1.6005726E1,1.4554504E1,4.5482437E1,7.1546875E1,7.838211E0,0E0,3.541193E0,2.9048843E0,3.3967097E0,0E0,1.393222E1,2.224731E1,8.277252E0,7.348709E0,3.2960754E1,3.1425827E1,1.6403418E2,2.3528809E2,0E0,7.424021E-1,3.4405541E0,4.851164E0,4.3671036E-1,2.563351E0,2.5420654E0,9.4557476E-1,5.586323E0,1.4643654E0,7.7820873E0,3.232913E0,4.7947693E0,1.2548824E1,9.411613E0,8.606388E0,2.1875381E-2,8.769288E-1,0E0,1.6201195E1,2.0839038E2,1.0662988E2,1.3253618E2,5.248999E1,0E0,0E0,0E0,0E0,0E0,0E0,0E0,0E0,0E0,0E0,0E0,0E0,0E0,0E0,0E0,0E0,0E0,0E0,0E0,0E0,0E0,0E0,0E0,0E0,0E0,0E0,0E0,0E0,0E0,0E0,0E0,0E0,0E0,0E0,0E0,0E0,0E0,0E0,0E0,0E0,0E0,0E0,0E0,0E0],"parents":[2147483647,0,0,1,1,2,2,3,3,4,4,5,5,6,6,7,7,8,8,9,9,10,10,11,11,12,12,13,13,15,15,16,16,17,17,19,19,20,20,21,21,22,22,23,23,24,24,25,25,26,26,28,28,29,29,30,30,31,31,32,32,33,33,34,34,35,35,36,36,37,37,38,38,39,39,40,40,41,41,42,42,43,43,44,44,46,46,47,47,48,48,49,49,50,50],"right_children":[2,4,6,8,10,12,14,16,18,20,22,24,26,28,-1,30,32,34,-1,36,38,40,42,44,46,48,50,-1,52,54,56,58,60,62,64,66,68,70,72,74,76,78,80,82,84,-1,86,88,90,92,94,-1,-1,-1,-1,-1,-1,-1,-1,-1,-1,-1,-1,-1,-1,-1,-1,-1,-1,-1,-1,-1,-1,-1,-1,-1,-1,-1,-1,-1,-1,-1,-1,-1,-1,-1,-1,-1,-1,-1,-1,-1,-1,-1,-1],"split_conditions":[6.5E0,4.5E0,8.1481624E-1,4.305201E-1,1.2277448E0,1.5854633E-1,1.2596923E-1,1.999E-1,6.3839567E-1,3.3980042E-1,9.08E-2,9.851534E-2,3.9256024E-1,9.805828E-2,1.0023168E0,3.5E0,1.400603E0,4.2558002E0,-7.9397134E-2,4.6829998E-1,1.35E1,6.8991766E0,1.7075962E0,6.7347425E-1,1.17991984E-1,2.25E1,4.1105E-1,7.160876E-1,8.628218E-1,3.2511395E-1,1.3460343E0,1.08688095E2,6.6625E-1,9.0207684E-1,4.4070283E-1,1.1638682E0,1.239E-1,4.4240808E-1,1.738E-1,1.8196881E0,-8.712056E-3,1.6920434E0,1.5E0,6.425852E-1,7.0011955E-1,1.2491938E0,6.2065434E-1,1.415081E0,1.1431357E0,1.4384737E0,4.5553708E-1,-9.027243E-4,2.8135777E-1,-1.6084084E-2,9.566334E-2,-3.6653818E-3,7.26689E-2,1.09990045E-1,1.9450651E-1,-1.8977249E-1,9.0837345E-2,-6.817847E-2,1.5243058E-2,-1.3796292E-1,7.859201E-2,4.2529002E-1,8.105621E-2,-6.9772884E-2,1.6505876E-1,1.4373717E-1,2.0976309E-2,-1.8317702E-1,-1.9512678E-2,7.4197896E-2,1.2490877E-1,-1.4269724E-1,4.188253E-1,2.0709924E-1,4.9986902E-1,1.7284922E-1,2.021935E-2,8.0088216E-1,3.1189528E-1,-2.4117816E-2,-2.2036405E-1,-3.6607856E-1,6.020381E-1,3.813222E-1,2.1848245E-1,-3.964432E-2,2.0672506E-1,-4.3900445E-2,2.656473E-1,2.6015252E-1,1.835602E-1],"split_indices":[65,65,63,63,64,64,64,9,63,63,27,64,63,64,0,65,64,19,0,49,40,64,64,63,64,33,27,0,63,63,64,6,22,64,63,64,0,63,9,64,63,64,38,63,63,0,63,64,64,64,63,0,0,0,0,0,0,0,0,0,0,0,0,0,0,0,0,0,0,0,0,0,0,0,0,0,0,0,0,0,0,0,0,0,0,0,0,0,0,0,0,0,0,0,0],"split_type":[0,0,0,0,0,0,0,0,0,0,0,0,0,0,0,0,0,0,0,0,0,0,0,0,0,0,0,0,0,0,0,0,0,0,0,0,0,0,0,0,0,0,0,0,0,0,0,0,0,0,0,0,0,0,0,0,0,0,0,0,0,0,0,0,0,0,0,0,0,0,0,0,0,0,0,0,0,0,0,0,0,0,0,0,0,0,0,0,0,0,0,0,0,0,0],"sum_hessian":[2.2022E4,2.536E3,1.9486E4,8.56E2,1.68E3,1.9436E4,5E1,6.49E2,2.07E2,2.85E2,1.395E3,5.6E1,1.938E4,2.6E1,2.4E1,5.85E2,6.4E1,1.82E2,2.5E1,3.9E1,2.46E2,9.68E2,4.27E2,1.6E1,4E1,1.4696E4,4.684E3,2.1E1,5E0,1.71E2,4.14E2,5.1E1,1.3E1,1.33E2,4.9E1,2.6E1,1.3E1,1.9E2,5.6E1,9.48E2,2E1,2.21E2,2.06E2,5E0,1.1E1,8E0,3.2E1,2.98E3,1.1716E4,7.43E2,3.941E3,1E0,4E0,1.42E2,2.9E1,9.8E1,3.16E2,1.2E1,3.9E1,3E0,1E1,5.6E1,7.7E1,1E0,4.8E1,2E1,6E0,1.1E1,2E0,8E1,1.1E2,4.1E1,1.5E1,2.26E2,7.22E2,4E0,1.6E1,2.11E2,1E1,1.64E2,4.2E1,3E0,2E0,3E0,8E0,1E0,3.1E1,1.166E3,1.814E3,1.6E2,1.1556E4,5.86E2,1.57E2,1.144E3,2.797E3],"tree_param":{"num_deleted":"0","num_feature":"66","num_nodes":"95","size_leaf_vector":"0"}},{"base_weights":[4.6282905E-1,1.454385E-1,4.8728552E-1,-3.5462133E-3,1.8087487E-1,4.835526E-1,1.9706823E0,1.343008E-1,-1.3868487E-1,1.0946036E-1,2.8255108E-1,7.5713724E-1,4.74251E-1,1.646118E0,2.639895E0,-1.7945534E-1,2.6499918E-1,6.897183E-1,-1.7111261E-1,-5.9355515E-1,1.3653502E-1,3.51405E-1,1.0644046E-1,4.7855854E-1,9.992605E-1,-2.7208853E-1,4.7921532E-1,1.3523104E0,1.8811201E0,-2.9360485E-1,-2.2088196E-2,5.07848E-1,2.0333451E-1,4.520601E-2,8.0957955E-1,-3.669207E-1,-3.1212457E-2,1.9982237E-1,-7.747165E-1,1.7630355E-1,1.0045196E-2,6.376279E-1,2.5677294E-1,5.1882225E-1,3.4730773E-2,5.2144957E-1,4.9185553E-3,9.3146324E-1,2.1563134E0,-7.493084E-1,1.5447892E-1,6.706594E-1,4.6644855E-1,1.1816573E-1,1.4110461E0,-4.7150248E-1,-2.1666045E-1,1.4858359E-1,-1.7523636E-1,-2.160433E-1,5.5484474E-1,8.728529E-2,4.1015616E-1,-2.736963E-1,-5.795972E-1,-2.8479582E-1,1.2611566E-1,1.0695323E0,-5.0241566E-1,-8.6715156E-1,-4.395575E-1,9.5074534E-2,2.7629763E-1,-2.16047E-2,8.998431E-1,7.4323815E-1,-3.1326076E-1,1.9710179E-1,6.070817E-1,1.079564E0,2.4107139E-1,-5.7815876E-2,2.1272475E-1,1.2360876E0,4.455236E-1,-3.0169588E-1,1.273184E-1,1.1113563E0,5.310284E-1,2.6427767E0,2.6566046E-1,-1.0934266E0,-5.463838E-1,-6.498197E-1,4.048233E-1,1.1448102E0,6.112645E-1,4.800552E-1,6.8676196E-2,1.9650694E0,1.132302E0],"categories":[],"categories_nodes":[],"categories_segments":[],"categories_sizes":[],"default_left":[1,1,1,1,1,1,1,1,1,1,1,1,1,1,0,1,1,1,1,1,1,1,1,1,1,1,1,1,0,1,1,1,1,0,0,1,1,1,1,1,1,1,1,1,1,1,1,1,1,1,1,1,1,0,1,0,0,0,0,0,0,0,0,0,0,0,0,0,0,0,0,0,0,0,0,0,0,0,0,0,0,0,0,0,0,0,0,0,0,0,0,0,0,0,0,0,0,0,0,0,0],"id":4,"left_children":[1,3,5,7,9,11,13,15,17,19,21,23,25,27,-1,29,31,33,35,37,39,41,43,45,47,49,51,53,-1,55,57,59,61,-1,-1,63,65,67,69,71,73,75,77,79,81,83,85,87,89,91,93,95,97,-1,99,-1,-1,-1,-1,-1,-1,-1,-1,-1,-1,-1,-1,-1,-1,-1,-1,-1,-1,-1,-1,-1,-1,-1,-1,-1,-1,-1,-1,-1,-1,-1,-1,-1,-1,-1,-1,-1,-1,-1,-1,-1,-1,-1,-1,-1,-1],"loss_changes":[1.7087793E2,8.326374E0,1.1227051E2,5.6816773E0,9.219784E0,5.1546387E1,6.7317505E0,6.2396755E0,4.2549596E0,1.4356469E1,6.328701E0,4.4646088E1,7.3228516E1,1.0818481E-2,0E0,8.01867E-1,1.4990826E0,4.2691445E-1,4.070192E0,4.179226E0,3.6351452E0,1.0047646E1,4.388175E0,6.356003E0,2.5996338E1,2.6782959E1,4.7589355E1,1.2830315E0,0E0,2.5373793E-1,5.487987E-1,8.343015E-1,2.0523293E0,0E0,0E0,1.0706177E0,3.5467474E0,4.2018104E0,3.3138657E-1,4.441063E0,4.919631E0,9.57222E0,5.8377895E0,3.1661716E0,2.1208103E0,1.5021797E1,1.0517095E0,2.3829865E1,1.677285E1,3.7320328E0,1.4357676E1,3.3742554E1,9.942969E1,0E0,7.0913315E-1,0E0,0E0,0E0,0E0,0E0,0E0,0E0,0E0,0E0,0E0,0E0,0E0,0E0,0E0,0E0,0E0,0E0,0E0,0E0,0E0,0E0,0E0,0E0,0E0,0E0,0E0,0E0,0E0,0E0,0E0,0E0,0E0,0E0,0E0,0E0,0E0,0E0,0E0,0E0,0E0,0E0,0E0,0E0,0E0,0E0,0E0],"parents":[2147483647,0,0,1,1,2,2,3,3,4,4,5,5,6,6,7,7,8,8,9,9,10,10,11,11,12,12,13,13,15,15,16,16,17,17,18,18,19,19,20,20,21,21,22,22,23,23,24,24,25,25,26,26,27,27,29,29,30,30,31,31,32,32,35,35,36,36,37,37,38,38,39,39,40,40,41,41,42,42,43,43,44,44,45,45,46,46,47,47,48,48,49,49,50,50,51,51,52,52,54,54],"right_children":[2,4,6,8,10,12,14,16,18,20,22,24,26,28,-1,30,32,34,36,38,40,42,44,46,48,50,52,54,-1,56,58,60,62,-1,-1,64,66,68,70,72,74,76,78,80,82,84,86,88,90,92,94,96,98,-1,100,-1,-1,-1,-1,-1,-1,-1,-1,-1,-1,-1,-1,-1,-1,-1,-1,-1,-1,-1,-1,-1,-1,-1,-1,-1,-1,-1,-1,-1,-1,-1,-1,-1,-1,-1,-1,-1,-1,-1,-1,-1,-1,-1,-1,-1,-1],"split_conditions":[5.5E0,1.079907E0,8.1481624E-1,4.5E0,6.3700005E-2,6.4855E-1,2.99283E-1,6.618564E-1,3.3034816E-1,1.3380913E0,1.8806213E0,4.9165E-1,4.4508904E-1,9.130638E-1,7.919685E-1,2.6439E0,4.186765E-1,3.0086E0,6.354E-1,2.6202887E-1,3.394372E0,2.9972988E-1,1.6603038E-1,4.5798224E-1,1.5441606E0,3.8574852E1,2.5E0,2.3939962E-2,5.6433606E-1,6.7212E0,6.3839567E-1,2.9045E-1,3.2450002E-1,1.3561804E-2,2.4287388E-1,4.806E-1,8.809763E-1,2.9199999E-2,3.9365E-1,2.0964441E0,8.927544E0,1.9940001E-1,6.1895E-1,2.628452E0,2.4579523E0,1.0160608E0,7.7640337E-1,7.7350354E-1,1.7453494E0,3.962868E-1,3.4563512E-1,4.0758198E-1,5.354347E-1,3.544972E-2,8.520589E-1,-1.4145075E-1,-6.499814E-2,4.457508E-2,-5.257091E-2,-6.481299E-2,1.6645342E-1,2.6185587E-2,1.2304685E-1,-8.210889E-2,-1.7387916E-1,-8.543875E-2,3.78347E-2,3.208597E-1,-1.5072471E-1,-2.601455E-1,-1.3186726E-1,2.8522361E-2,8.288929E-2,-6.4814105E-3,2.6995295E-1,2.2297145E-1,-9.397823E-2,5.913054E-2,1.8212453E-1,3.238692E-1,7.232142E-2,-1.7344764E-2,6.381743E-2,3.7082627E-1,1.3365708E-1,-9.050877E-2,3.819552E-2,3.334069E-1,1.5930852E-1,7.9283303E-1,7.9698145E-2,-3.28028E-1,-1.6391514E-1,-1.9494592E-1,1.21447E-1,3.4344307E-1,1.8337937E-1,1.4401656E-1,2.060286E-2,5.895209E-1,3.3969063E-1],"split_indices":[65,64,63,40,36,54,64,64,63,64,64,29,64,63,0,11,63,2,47,63,64,63,63,63,64,13,40,64,0,12,63,8,27,0,0,49,64,0,3,64,64,62,49,64,64,64,64,64,64,64,64,63,63,0,63,0,0,0,0,0,0,0,0,0,0,0,0,0,0,0,0,0,0,0,0,0,0,0,0,0,0,0,0,0,0,0,0,0,0,0,0,0,0,0,0,0,0,0,0,0,0],"split_type":[0,0,0,0,0,0,0,0,0,0,0,0,0,0,0,0,0,0,0,0,0,0,0,0,0,0,0,0,0,0,0,0,0,0,0,0,0,0,0,0,0,0,0,0,0,0,0,0,0,0,0,0,0,0,0,0,0,0,0,0,0,0,0,0,0,0,0,0,0,0,0,0,0,0,0,0,0,0,0,0,0,0,0,0,0,0,0,0,0,0,0,0,0,0,0,0,0,0,0,0,0],"sum_hessian":[2.2022E4,1.576E3,2.0446E4,3.03E2,1.273E3,2.0396E4,5E1,1.5E2,1.53E2,7.49E2,5.24E2,6.68E2,1.9728E4,3.6E1,1.4E1,4.4E1,1.06E2,5E0,1.48E2,2.7E1,7.22E2,3.76E2,1.48E2,3.12E2,3.56E2,1.3E2,1.9598E4,1.9E1,1.7E1,2.5E1,1.9E1,2E1,8.6E1,1E0,4E0,6.1E1,8.7E1,5E0,2.2E1,5.49E2,1.73E2,9.2E1,2.84E2,2.1E1,1.27E2,2.86E2,2.6E1,3.38E2,1.8E1,6.1E1,6.9E1,1.222E3,1.8376E4,1E0,1.8E1,6E0,1.9E1,9E0,1E1,1E0,1.9E1,5.6E1,3E1,4.4E1,1.7E1,3.3E1,5.4E1,2E0,3E0,1.6E1,6E0,3.04E2,2.45E2,1.68E2,5E0,8.3E1,9E0,2.44E2,4E1,6E0,1.5E1,8.4E1,4.3E1,2.6E1,2.6E2,7E0,1.9E1,2.32E2,1.06E2,1.4E1,4E0,2.1E1,4E1,1.6E1,5.3E1,1.34E2,1.088E3,1.7768E4,6.08E2,4E0,1.4E1],"tree_param":{"num_deleted":"0","num_feature":"66","num_nodes":"101","size_leaf_vector":"0"}},{"base_weights":[3.2421738E-1,1.3779375E-1,3.484711E-1,1.7476793E-1,1.6821306E-2,3.4562856E-1,1.4249867E0,1.4154014E-1,3.7079298E-1,-1.1958565E-2,4.3898833E-1,4.2148122E-1,3.1804666E-1,1.0846554E0,1.735545E0,4.1511036E-2,1.7519824E-1,5.422544E-1,1.3281812E-1,-2.6880702E-1,8.8382654E-2,9.5781076E-1,3.1177753E-1,3.9381447E-1,8.504274E-1,-3.8522014E-1,3.2747093E-1,1.2035265E0,1.00265145E-1,-1.2003848E-1,1.1434371E-1,1.6749574E-1,8.399533E-1,6.6967577E-1,1.336919E-1,3.2667726E-1,-2.3036835E-1,-3.6161983E-1,-6.295523E-2,-1.2799717E-1,1.3049744E-1,2.4497819E-1,1.0357865E0,1.5543063E-1,6.4019763E-1,3.84387E-1,9.6783215E-1,-1.6918156E-1,9.280926E-1,-1.0066515E0,-1.6052882E-1,1.6393008E0,3.237078E-1,7.600764E-1,1.3414131E0,-1.724031E-1,2.4862225E-1,-6.8098515E-2,-4.0490037E-1,-8.2772416E-1,1.2375989E-1,-3.8959835E-2,1.9423813E-1,-3.7138867E-1,9.617018E-1,5.5891556E-1,1.0294636E0,-4.6161944E-3,1.1027719E0,-6.647033E-2,6.0161626E-1,-6.212487E-1,1.53216E-1,-5.816205E-1,-2.570646E-1,-3.4495693E-1,9.2771605E-2,-4.940022E-1,-8.31633E-2,5.281307E-1,8.4135525E-2,-9.318066E-2,3.5383782E-1,7.626952E-1,1.0013839E-1,2.41908E-1,4.264833E-1,1.3520212E0,4.0296763E-1,-9.7963464E-1,2.2903745E0,1.3383129E0,5.7911533E-1,-5.8284223E-1,-1.375443E0,-3.819611E-1,2.7184057E-1,4.8890337E-1,2.2399416E0,2.3907521E-1,3.7919566E-1,1.2662798E0,2.0309834E-1,7.8910065E-1,1.5709381E0],"categories":[],"categories_nodes":[],"categories_segments":[],"categories_sizes":[],"default_left":[1,1,1,1,1,1,1,1,1,1,1,1,1,1,0,1,1,1,1,1,1,1,1,1,1,1,1,1,1,1,1,1,1,1,1,1,1,1,1,1,1,0,0,1,1,1,1,1,1,1,1,1,1,1,1,0,0,0,0,0,0,0,0,0,0,0,0,0,0,0,0,0,0,0,0,0,0,0,0,0,0,0,0,0,0,0,0,0,0,0,0,0,0,0,0,0,0,0,0,0,0,0,0,0,0],"id":5,"left_children":[1,3,5,7,9,11,13,15,17,19,21,23,25,27,-1,29,31,33,35,37,39,41,43,45,47,49,51,53,55,57,59,61,63,65,67,69,71,73,75,77,79,-1,-1,81,83,85,87,89,91,93,95,97,99,101,103,-1,-1,-1,-1,-1,-1,-1,-1,-1,-1,-1,-1,-1,-1,-1,-1,-1,-1,-1,-1,-1,-1,-1,-1,-1,-1,-1,-1,-1,-1,-1,-1,-1,-1,-1,-1,-1,-1,-1,-1,-1,-1,-1,-1,-1,-1,-1,-1,-1,-1],"loss_changes":[9.9528564E1,1.1344696E1,5.9138916E1,1.2603203E1,7.234448E0,4.0531006E1,3.5078506E0,5.5916977E0,1.1393768E1,1.4404806E1,2.2093687E0,6.1139038E1,9.4625E1,3.0387459E0,0E0,4.9554806E0,6.228924E0,8.396183E0,8.4536915E0,2.9768267E0,3.6800456E0,1.3534069E-1,1.5436132E0,2.5971436E1,2.4942902E1,2.6228516E1,6.892737E1,4.4792175E-1,2.0467237E-1,1.9106659E0,2.6749363E0,6.804062E0,2.4218712E0,4.3660393E0,5.3663554E0,8.471134E0,6.39248E0,2.3347273E0,2.227764E0,1.041939E0,6.168175E0,0E0,0E0,1.1674749E0,5.851841E-1,2.8632507E1,1.6382332E1,4.8090893E1,4.0883835E1,7.013195E0,1.3507507E1,2.6543922E1,6.580005E1,1.998374E0,9.1545486E-1,0E0,0E0,0E0,0E0,0E0,0E0,0E0,0E0,0E0,0E0,0E0,0E0,0E0,0E0,0E0,0E0,0E0,0E0,0E0,0E0,0E0,0E0,0E0,0E0,0E0,0E0,0E0,0E0,0E0,0E0,0E0,0E0,0E0,0E0,0E0,0E0,0E0,0E0,0E0,0E0,0E0,0E0,0E0,0E0,0E0,0E0,0E0,0E0,0E0,0E0],"parents":[2147483647,0,0,1,1,2,2,3,3,4,4,5,5,6,6,7,7,8,8,9,9,10,10,11,11,12,12,13,13,15,15,16,16,17,17,18,18,19,19,20,20,21,21,22,22,23,23,24,24,25,25,26,26,27,27,28,28,29,29,30,30,31,31,32,32,33,33,34,34,35,35,36,36,37,37,38,38,39,39,40,40,43,43,44,44,45,45,46,46,47,47,48,48,49,49,50,50,51,51,52,52,53,53,54,54],"right_children":[2,4,6,8,10,12,14,16,18,20,22,24,26,28,-1,30,32,34,36,38,40,42,44,46,48,50,52,54,56,58,60,62,64,66,68,70,72,74,76,78,80,-1,-1,82,84,86,88,90,92,94,96,98,100,102,104,-1,-1,-1,-1,-1,-1,-1,-1,-1,-1,-1,-1,-1,-1,-1,-1,-1,-1,-1,-1,-1,-1,-1,-1,-1,-1,-1,-1,-1,-1,-1,-1,-1,-1,-1,-1,-1,-1,-1,-1,-1,-1,-1,-1,-1,-1,-1,-1,-1,-1],"split_conditions":[6.5E0,3.7390953E-1,8.1481624E-1,5.489E-1,1.8785017E0,1.6156587E-1,1.2596923E-1,2.8114998E-1,1.672168E0,7.655E-2,7.6234996E-1,1.675E-2,1.01315E0,9.995514E-2,5.2066356E-1,1.9132934E0,6.8863063E0,4.385E-2,2.9016775E-1,1.1451197E0,6.798489E-1,1.9128586E0,2.5175433E0,1.6235E-1,9.062382E-1,1.8739457E0,5.06E-2,8.7672305E-1,8.628218E-1,2.7898276E-1,-6.867177E-2,7.405162E-2,2.9011536E-4,8.9559E0,3.7214756E-1,1.9321379E-1,2.0338912E0,1.742E-1,3.980978E-1,1.496E0,1.6420001E-1,7.349346E-2,3.1073597E-1,3.997993E-1,5.42E-2,1.9826972E0,7.3325E-1,8.9013785E-2,2.4522953E0,1.0072999E0,3.59E-1,1.7870414E-1,3.0182E0,8.515115E-1,6.0562617E-3,-5.1720932E-2,7.458668E-2,-2.0429555E-2,-1.21470116E-1,-2.4831726E-1,3.7127968E-2,-1.1687951E-2,5.827144E-2,-1.1141661E-1,2.8851056E-1,1.6767468E-1,3.088391E-1,-1.3848584E-3,3.308316E-1,-1.99411E-2,1.8048489E-1,-1.8637462E-1,4.5964804E-2,-1.7448616E-1,-7.711939E-2,-1.0348708E-1,2.7831482E-2,-1.4820066E-1,-2.494899E-2,1.5843922E-1,2.5240658E-2,-2.7954198E-2,1.0615135E-1,2.2880857E-1,3.0041518E-2,7.25724E-2,1.2794499E-1,4.056064E-1,1.208903E-1,-2.9389042E-1,6.871124E-1,4.0149388E-1,1.737346E-1,-1.7485267E-1,-4.126329E-1,-1.14588335E-1,8.155218E-2,1.4667101E-1,6.719825E-1,7.172257E-2,1.13758706E-1,3.7988397E-1,6.0929503E-2,2.367302E-1,4.7128144E-1],"split_indices":[65,63,63,28,64,63,64,56,64,0,54,51,32,64,0,64,64,58,63,64,64,64,64,9,64,64,27,63,63,63,63,63,63,13,63,63,64,9,63,26,9,0,0,63,0,64,49,63,64,45,22,63,19,63,64,0,0,0,0,0,0,0,0,0,0,0,0,0,0,0,0,0,0,0,0,0,0,0,0,0,0,0,0,0,0,0,0,0,0,0,0,0,0,0,0,0,0,0,0,0,0,0,0,0,0],"split_type":[0,0,0,0,0,0,0,0,0,0,0,0,0,0,0,0,0,0,0,0,0,0,0,0,0,0,0,0,0,0,0,0,0,0,0,0,0,0,0,0,0,0,0,0,0,0,0,0,0,0,0,0,0,0,0,0,0,0,0,0,0,0,0,0,0,0,0,0,0,0,0,0,0,0,0,0,0,0,0,0,0,0,0,0,0,0,0,0,0,0,0,0,0,0,0,0,0,0,0,0,0,0,0,0,0],"sum_hessian":[2.2022E4,2.536E3,1.9486E4,1.942E3,5.94E2,1.9436E4,5E1,1.662E3,2.8E2,5.57E2,3.7E1,5.179E3,1.4257E4,2.6E1,2.4E1,4.19E2,1.243E3,1.62E2,1.18E2,1.56E2,4.01E2,6E0,3.1E1,4.867E3,3.12E2,1.88E2,1.4069E4,2.3E1,3E0,1.3E2,2.89E2,1.23E3,1.3E1,1.23E2,3.9E1,7.7E1,4.1E1,1.07E2,4.9E1,6.5E1,3.36E2,1E0,5E0,2.2E1,9E0,4.79E3,7.7E1,2.2E1,2.9E2,4.9E1,1.39E2,3.9E1,1.403E4,7E0,1.6E1,1E0,2E0,1.11E2,1.9E1,2E0,2.87E2,1.41E2,1.089E3,1E0,1.2E1,9.6E1,2.7E1,3.5E1,4E0,3.2E1,4.5E1,2E1,2.1E1,3.3E1,7.4E1,1.7E1,3.2E1,6E0,5.9E1,3.4E1,3.02E2,1E1,1.2E1,7E0,2E0,1.094E3,3.696E3,4.5E1,3.2E1,1.7E1,5E0,1.32E2,1.58E2,2.4E1,2.5E1,9.2E1,4.7E1,1.4E1,2.5E1,5.558E3,8.472E3,3E0,4E0,6E0,1E1],"tree_param":{"num_deleted":"0","num_feature":"66","num_nodes":"105","size_leaf_vector":"0"}},{"base_weights":[2.271734E-1,9.6889704E-2,2.441233E-1,1.18001275E-1,-2.9465923E-2,2.767805E-1,1.823895E-1,1.0748575E-1,3.8496467E-1,-1.794268E-1,6.615699E-2,2.2125074E-1,4.0893823E-1,-4.4761285E-1,2.4623424E-1,4.0544458E-2,1.3634992E-1,4.7934717E-1,1.9594328E-1,-2.6583338E-1,7.296576E-2,-5.4240048E-2,1.6994978E-1,2.5998574E-1,-1.5968464E-1,7.3134077E-1,2.2197063E-1,-1.0500418E0,-2.7170482E-1,5.518034E-1,2.2490224E-1,8.0613114E-2,-1.13310575E-1,1.6466984E-1,3.5575412E-2,3.0590427E-1,7.827471E-1,6.588145E-1,1.8719966E-2,-4.6463275E-1,-1.7358728E-1,-3.5276318E-1,2.0257248E-1,-1.5750206E-1,4.4289622E-2,6.758005E-2,4.8884863E-1,3.5811016E-1,2.1374597E-1,-4.830981E-1,1.4592497E-1,4.2367318E-1,1.1923542E0,3.9243332E-1,-7.259386E-3,-1.4938825E0,-8.5113925E-1,-4.2833355E-1,1.9398922E-1,1.526756E-1,7.2704136E-1,3.567226E-1,1.5258965E-1,-1.2918438E-1,1.0054879E-1,-1.4323087E-1,3.0819008E-1,1.5386702E-1,1.2604271E0,-3.7499622E-1,1.0362855E-1,3.6708313E-1,-9.1767794E-1,9.965349E-1,5.366709E-1,1.0455669E0,1.0670304E-2,-1.1604289E0,1.3012843E-1,-7.172485E-1,-2.4074492E-1,-1.2038733E-1,-3.1120774E-1,5.322986E-2,4.0970537E-1,-4.1983503E-1,-1.3235967E-1,1.3033165E-1,-1.6820593E-1,-4.166804E-1,8.8585235E-2,3.09874E-1,7.9791296E-1,5.2588505E-1,2.5327593E-1,-1.270927E-1,2.4522065E-1,-1.1479241E0,-2.4801505E-1,-7.8389925E-1,2.8838873E-1,8.942912E-1,2.8751433E-1,6.873477E-1,1.3618785E0,7.926877E-1,2.504536E-1,-7.91046E-2,5.995008E-1,-9.6458447E-1,-1.5900532E0,6.0353595E-1,-9.187417E-1,-9.364647E-1,-2.5862715E-1,-2.4725318E-1,7.0149815E-1,1.0727048E0,5.0758547E-3,4.0278512E-1,1.296947E0,6.9172484E-1,3.209703E-2,-2.1113281E-1,2.274414E-1],"categories":[],"categories_nodes":[],"categories_segments":[],"categories_sizes":[],"default_left":[1,1,1,1,1,1,1,1,1,1,1,1,1,1,1,1,1,1,1,1,1,1,1,1,1,1,1,1,1,1,1,1,1,1,1,1,1,1,1,1,1,0,1,1,1,1,1,1,1,1,1,1,1,1,1,1,1,1,1,1,1,1,1,0,0,0,0,0,0,0,0,0,0,0,0,0,0,0,0,0,0,0,0,0,0,0,0,0,0,0,0,0,0,0,0,0,0,0,0,0,0,0,0,0,0,0,0,0,0,0,0,0,0,0,0,0,0,0,0,0,0,0,0,0,0],"id":6,"left_children":[1,3,5,7,9,11,13,15,17,19,21,23,25,27,29,31,33,35,37,39,41,43,45,47,49,51,53,55,57,59,61,63,65,67,69,71,73,75,77,79,81,-1,83,85,87,89,91,93,95,97,99,101,103,105,107,109,111,113,115,117,119,121,123,-1,-1,-1,-1,-1,-1,-1,-1,-1,-1,-1,-1,-1,-1,-1,-1,-1,-1,-1,-1,-1,-1,-1,-1,-1,-1,-1,-1,-1,-1,-1,-1,-1,-1,-1,-1,-1,-1,-1,-1,-1,-1,-1,-1,-1,-1,-1,-1,-1,-1,-1,-1,-1,-1,-1,-1,-1,-1,-1,-1,-1,-1],"loss_changes":[4.860962E1,6.7710953E0,3.923633E1,6.0616055E0,5.2315197E0,9.342627E1,2.714099E2,4.038578E0,1.3689804E0,3.1161866E0,2.7959027E0,1.3247247E2,2.2702856E2,6.552336E1,3.9801086E1,3.9052653E0,4.166582E0,2.6021729E0,2.3665824E0,1.8632236E0,2.1130214E0,1.0651102E0,3.8844347E0,3.6888428E1,8.20074E1,1.9565802E2,9.327527E1,1.1087845E1,3.524068E1,2.7795975E1,5.4536896E1,2.1125824E0,1.6962383E0,1.3312393E1,9.035763E0,3.0317292E0,4.6474266E-1,1.9942143E0,3.0410824E0,1.693727E0,5.0431824E-1,0E0,8.7527084E-1,2.8081024E-1,1.0092342E0,9.72734E-1,1.356873E0,4.5737762E1,5.9463165E1,6.269989E1,5.6789165E1,5.2992386E1,4.640674E1,7.7599E1,4.4468502E1,6.041794E-1,1.0290123E1,3.0887955E1,2.7493452E1,1.6697474E1,5.066597E1,2.2052338E2,1.00781494E2,0E0,0E0,0E0,0E0,0E0,0E0,0E0,0E0,0E0,0E0,0E0,0E0,0E0,0E0,0E0,0E0,0E0,0E0,0E0,0E0,0E0,0E0,0E0,0E0,0E0,0E0,0E0,0E0,0E0,0E0,0E0,0E0,0E0,0E0,0E0,0E0,0E0,0E0,0E0,0E0,0E0,0E0,0E0,0E0,0E0,0E0,0E0,0E0,0E0,0E0,0E0,0E0,0E0,0E0,0E0,0E0,0E0,0E0,0E0,0E0,0E0,0E0],"parents":[2147483647,0,0,1,1,2,2,3,3,4,4,5,5,6,6,7,7,8,8,9,9,10,10,11,11,12,12,13,13,14,14,15,15,16,16,17,17,18,18,19,19,20,20,21,21,22,22,23,23,24,24,25,25,26,26,27,27,28,28,29,29,30,30,31,31,32,32,33,33,34,34,35,35,36,36,37,37,38,38,39,39,40,40,42,42,43,43,44,44,45,45,46,46,47,47,48,48,49,49,50,50,51,51,52,52,53,53,54,54,55,55,56,56,57,57,58,58,59,59,60,60,61,61,62,62],"right_children":[2,4,6,8,10,12,14,16,18,20,22,24,26,28,30,32,34,36,38,40,42,44,46,48,50,52,54,56,58,60,62,64,66,68,70,72,74,76,78,80,82,-1,84,86,88,90,92,94,96,98,100,102,104,106,108,110,112,114,116,118,120,122,124,-1,-1,-1,-1,-1,-1,-1,-1,-1,-1,-1,-1,-1,-1,-1,-1,-1,-1,-1,-1,-1,-1,-1,-1,-1,-1,-1,-1,-1,-1,-1,-1,-1,-1,-1,-1,-1,-1,-1,-1,-1,-1,-1,-1,-1,-1,-1,-1,-1,-1,-1,-1,-1,-1,-1,-1,-1,-1,-1,-1,-1,-1],"split_conditions":[6.5E0,4.287501E-1,3.36882E-1,7.5313997E0,7.4895E-1,1.9626E0,6.11275E0,4.5E0,1.3705366E0,1.0904226E0,7.5521654E-1,2.5750804E-1,1.57286E0,1.1131237E0,6.4965E-1,2.5626054E0,3.0798733E-1,1.2431893E0,2.8633246E-1,1.765E-2,6.54E-2,1.3151E0,3.513E-1,5.25E1,2.5355E0,5.92452E1,2.6595604E-1,2.8698E0,1.6880198E0,4.7275078E-1,4.1545045E-1,1.2608787E-1,7.7560787E0,3.0529594E-1,1.4684E0,1.2412711E0,4.6185E-1,1.7173954E0,2.8862277E-1,9.253746E-1,5.1615477E-1,-1.05828956E-1,4.81471E-1,9.77E-2,6.796836E-1,4.3407863E-1,5.115317E-1,1.8443781E0,1.6662216E0,1.4160295E0,1.322037E0,1.2679E0,1.65E-3,1.8961731E0,2.3583643E0,3.6542195E-1,3.5597086E-1,2.03495E0,6.83785E0,8.4591556E-1,2.742663E-1,1.255647E0,2.8065E0,-3.8755316E-2,3.0164639E-2,-4.2969264E-2,9.2457026E-2,4.616011E-2,3.7812814E-1,-1.1249887E-1,3.1088566E-2,1.10124946E-1,-2.753034E-1,2.9896048E-1,1.6100128E-1,3.136701E-1,3.2010914E-3,-3.4812868E-1,3.903853E-2,-2.1517456E-1,-7.222348E-2,-3.61162E-2,-9.3362324E-2,1.596896E-2,1.2291162E-1,-1.2595052E-1,-3.9707903E-2,3.9099496E-2,-5.046178E-2,-1.2500413E-1,2.657557E-2,9.2962205E-2,2.3937389E-1,1.5776552E-1,7.598278E-2,-3.8127813E-2,7.35662E-2,-3.4437722E-1,-7.4404515E-2,-2.3516978E-1,8.651662E-2,2.682874E-1,8.62543E-2,2.0620432E-1,4.0856358E-1,2.3780632E-1,7.513608E-2,-2.3731383E-2,1.7985024E-1,-2.8937536E-1,-4.7701597E-1,1.8106079E-1,-2.7562252E-1,-2.8093943E-1,-7.758815E-2,-7.4175954E-2,2.1044946E-1,3.2181144E-1,1.5227565E-3,1.2083554E-1,3.8908413E-1,2.0751746E-1,9.62911E-3,-6.3339844E-2,6.8232425E-2],"split_indices":[65,63,63,12,47,23,12,65,64,64,64,63,64,64,54,64,63,64,63,43,27,47,27,40,19,7,63,19,64,63,63,63,64,63,32,64,3,64,63,64,63,0,63,1,63,63,63,64,64,64,64,28,50,64,64,63,63,23,25,64,64,64,23,0,0,0,0,0,0,0,0,0,0,0,0,0,0,0,0,0,0,0,0,0,0,0,0,0,0,0,0,0,0,0,0,0,0,0,0,0,0,0,0,0,0,0,0,0,0,0,0,0,0,0,0,0,0,0,0,0,0,0,0,0,0],"split_type":[0,0,0,0,0,0,0,0,0,0,0,0,0,0,0,0,0,0,0,0,0,0,0,0,0,0,0,0,0,0,0,0,0,0,0,0,0,0,0,0,0,0,0,0,0,0,0,0,0,0,0,0,0,0,0,0,0,0,0,0,0,0,0,0,0,0,0,0,0,0,0,0,0,0,0,0,0,0,0,0,0,0,0,0,0,0,0,0,0,0,0,0,0,0,0,0,0,0,0,0,0,0,0,0,0,0,0,0,0,0,0,0,0,0,0,0,0,0,0,0,0,0,0,0,0],"sum_hessian":[2.2022E4,2.536E3,1.9486E4,2.173E3,3.63E2,1.2742E4,6.744E3,2.092E3,8.1E1,1.41E2,2.22E2,8.974E3,3.768E3,6.2E2,6.124E3,6.31E2,1.461E3,5.3E1,2.8E1,1.05E2,3.6E1,1.03E2,1.19E2,8.146E3,8.28E2,1.382E3,2.386E3,1.39E2,4.81E2,3.98E2,5.726E3,5.01E2,1.3E2,1.14E3,3.21E2,3.5E1,1.8E1,7E0,2.1E1,3.2E1,7.3E1,8E0,2.8E1,5E1,5.3E1,9.1E1,2.8E1,2.607E3,5.539E3,4.02E2,4.26E2,8.3E2,5.52E2,1.368E3,1.018E3,4.1E1,9.8E1,3.6E2,1.21E2,1.22E2,2.76E2,2.027E3,3.699E3,4.3E1,4.58E2,1.22E2,8E0,1.13E3,1E1,4.5E1,2.76E2,3.4E1,1E0,8E0,1E1,4E0,3E0,1E0,2E1,1.4E1,1.8E1,5.4E1,1.9E1,1.7E1,1.1E1,3E0,4.7E1,3.8E1,1.5E1,3E0,8.8E1,1.9E1,9E0,1.001E3,1.606E3,4.68E2,5.071E3,1.04E2,2.98E2,5.6E1,3.7E2,1.85E2,6.45E2,1.4E2,4.12E2,3.57E2,1.011E3,9.11E2,1.07E2,8E0,3.3E1,4E0,9.4E1,8.9E1,2.71E2,6.5E1,5.6E1,1.6E1,1.06E2,1.77E2,9.9E1,9.97E2,1.03E3,6.31E2,3.068E3],"tree_param":{"num_deleted":"0","num_feature":"66","num_nodes":"125","size_leaf_vector":"0"}},{"base_weights":[1.5908818E-1,8.326772E-1,1.5671769E-1,1.4161568E0,3.6288208E-1,1.6256242E-1,-7.2670184E-2,2.183086E-1,1.906164E0,-2.6903626E-1,7.3358667E-1,1.5103105E-1,3.6644012E-1,-1.8389302E-1,5.005066E-1,1.321823E0,-9.215905E-1,2.548695E0,1.425605E0,-8.3018726E-1,3.220077E-1,8.3244765E-1,3.1808266E-1,1.6347282E-1,-2.6765352E-1,5.8618253E-1,9.649076E-2,-2.4471197E-1,9.261123E-1,1.5993652E0,4.627483E-2,1.6429446E0,4.5305315E-1,-4.883054E-1,-1.1921072E0,-1.3212231E0,1.6968085E0,1.1947188E0,6.357893E-2,3.897526E-1,9.3972546E-1,3.6017258E-2,1.0052376E0,1.5616651E-1,4.1395485E-1,1.9296107E0,-3.2490626E-1,7.992892E-1,3.422973E-1,4.7774795E-1,-4.4334803E-2,-4.415384E-1,1.7760576E-1,5.6533325E-1,1.0149646E0,3.2346947E0,1.155001E0,-3.0076146E-1,7.224696E-1,-6.5627146E-1,7.7964067E-3,-3.0528116E-1,1.8616207E0,-2.8844985E-1,4.877202E-1,8.9074016E-1,-4.0814838E-1,4.8261562E-1,1.145184E0,-2.069602E-1,1.2600479E-1,-1.9432555E-1,1.6595735E-1,1.6420542E0,2.8692895E-1,-1.3441914E0,2.2594674E0,-4.2470032E-1,4.584861E-1,5.84405E-1,1.338265E0,-6.7565694E-2,6.5930265E-1,8.0842155E-1,6.600801E-2,1.56223E-2,-6.306477E-1,-5.285751E-1,6.1831534E-1,6.297463E-1,-2.9021436E-1,4.1898412E-1,1.2491624E0,-5.001677E-1,6.3416183E-1,-1.2052832E-1,9.1649854E-1],"categories":[],"categories_nodes":[],"categories_segments":[],"categories_sizes":[],"default_left":[1,1,1,1,1,1,1,1,1,1,1,1,1,1,1,1,1,0,1,0,1,1,1,1,1,1,1,1,1,1,1,0,0,1,0,0,1,0,1,1,1,1,0,1,1,1,1,1,1,1,1,1,1,0,0,0,1,1,1,0,0,0,0,0,0,0,0,0,0,0,0,0,0,0,0,0,0,0,0,0,0,0,0,0,0,0,0,0,0,0,0,0,0,0,0,0,0],"id":7,"left_children":[1,3,5,7,9,11,13,15,17,19,21,23,25,27,29,31,33,-1,35,-1,37,39,41,43,45,47,49,51,53,55,57,-1,-1,59,-1,-1,61,-1,63,65,67,69,-1,71,73,75,77,79,81,83,85,87,89,-1,-1,-1,91,93,95,-1,-1,-1,-1,-1,-1,-1,-1,-1,-1,-1,-1,-1,-1,-1,-1,-1,-1,-1,-1,-1,-1,-1,-1,-1,-1,-1,-1,-1,-1,-1,-1,-1,-1,-1,-1,-1,-1],"loss_changes":[3.5034607E1,2.0593021E1,2.9436462E1,1.9540314E1,1.0504583E1,5.0260498E1,3.4899727E1,1.5055024E1,3.7771454E0,5.90563E0,8.853731E-1,1.0557135E2,6.786406E1,3.1145905E1,4.4349136E1,9.295435E-1,1.2115288E-1,0E0,1.4161049E1,0E0,1.9538438E0,6.7854977E-1,1.3205525E0,3.5940674E1,7.421959E1,3.252176E1,2.767192E1,3.623705E1,1.9555092E-1,1.5157654E1,1.5235795E1,0E0,0E0,3.384297E-1,0E0,0E0,5.517849E0,0E0,1.3351623E0,2.761985E0,1.0439072E0,1.5726763E-1,0E0,6.563782E1,8.6421104E1,1.923544E1,4.4834312E1,3.8132553E1,3.850346E1,1.8871698E1,1.3262769E1,2.772395E1,2.9584108E1,0E0,0E0,0E0,1.001318E0,8.333658E0,3.7089148E0,0E0,0E0,0E0,0E0,0E0,0E0,0E0,0E0,0E0,0E0,0E0,0E0,0E0,0E0,0E0,0E0,0E0,0E0,0E0,0E0,0E0,0E0,0E0,0E0,0E0,0E0,0E0,0E0,0E0,0E0,0E0,0E0,0E0,0E0,0E0,0E0,0E0,0E0],"parents":[2147483647,0,0,1,1,2,2,3,3,4,4,5,5,6,6,7,7,8,8,9,9,10,10,11,11,12,12,13,13,14,14,15,15,16,16,18,18,20,20,21,21,22,22,23,23,24,24,25,25,26,26,27,27,28,28,29,29,30,30,33,33,36,36,38,38,39,39,40,40,41,41,43,43,44,44,45,45,46,46,47,47,48,48,49,49,50,50,51,51,52,52,56,56,57,57,58,58],"right_children":[2,4,6,8,10,12,14,16,18,20,22,24,26,28,30,32,34,-1,36,-1,38,40,42,44,46,48,50,52,54,56,58,-1,-1,60,-1,-1,62,-1,64,66,68,70,-1,72,74,76,78,80,82,84,86,88,90,-1,-1,-1,92,94,96,-1,-1,-1,-1,-1,-1,-1,-1,-1,-1,-1,-1,-1,-1,-1,-1,-1,-1,-1,-1,-1,-1,-1,-1,-1,-1,-1,-1,-1,-1,-1,-1,-1,-1,-1,-1,-1,-1],"split_conditions":[1.5353683E-1,7.3059547E-1,6.4398384E-1,9.851534E-2,8.060559E-1,6.22475E0,5.611712E-1,6.7347425E-1,1.1978558E-1,1.2326586E-1,9.805828E-2,5.335364E-1,8.357061E-1,8.212106E-1,2.52355E0,6.425852E-1,7.0011955E-1,7.6460856E-1,6.2065434E-1,-2.4905619E-1,1.26562E-1,8.712711E-1,1.2596923E-1,3.67065E0,2.0030041E-1,5.904447E-1,1.35E1,8.15825E0,1.9526538E-1,9.55E-2,6.683805E-1,4.9288338E-1,1.3591595E-1,6.8489045E-1,-3.5763216E-1,-3.9636695E-1,1.2483345E-1,3.5841566E-1,1.39352E-1,8.515115E-1,6.0562617E-3,8.628218E-1,3.0157128E-1,8.943945E-1,8.1504107E-1,6.07942E-1,9.9384594E-1,6.7985E-1,1.4527E0,9.981544E-1,2.1283002E0,7.328445E-1,7.1865475E-1,1.6959998E-1,3.0448937E-1,9.7040844E-1,8.675E-2,6.775838E-1,5.7230866E-1,-1.9688144E-1,2.3389221E-3,-9.1584355E-2,5.584862E-1,-8.653496E-2,1.4631607E-1,2.6722205E-1,-1.2244452E-1,1.4478469E-1,3.435552E-1,-6.208806E-2,3.7801437E-2,-5.8297668E-2,4.9787205E-2,4.9261627E-1,8.607869E-2,-4.0325746E-1,6.7784023E-1,-1.274101E-1,1.3754584E-1,1.753215E-1,4.014795E-1,-2.0269709E-2,1.977908E-1,2.4252647E-1,1.9802403E-2,4.6866904E-3,-1.8919432E-1,-1.5857254E-1,1.854946E-1,1.8892391E-1,-8.706431E-2,1.2569524E-1,3.7474874E-1,-1.5005033E-1,1.9024856E-1,-3.61585E-2,2.7494958E-1],"split_indices":[64,63,63,64,63,19,64,63,64,64,64,63,64,63,26,63,63,0,63,0,64,63,64,23,64,63,65,23,64,0,63,0,0,63,0,0,64,0,64,63,64,63,0,64,64,63,64,22,27,64,20,63,63,0,0,0,9,64,64,0,0,0,0,0,0,0,0,0,0,0,0,0,0,0,0,0,0,0,0,0,0,0,0,0,0,0,0,0,0,0,0,0,0,0,0,0,0],"split_type":[0,0,0,0,0,0,0,0,0,0,0,0,0,0,0,0,0,0,0,0,0,0,0,0,0,0,0,0,0,0,0,0,0,0,0,0,0,0,0,0,0,0,0,0,0,0,0,0,0,0,0,0,0,0,0,0,0,0,0,0,0,0,0,0,0,0,0,0,0,0,0,0,0,0,0,0,0,0,0,0,0,0,0,0,0,0,0,0,0,0,0,0,0,0,0,0,0],"sum_hessian":[2.2022E4,7.6E1,2.1946E4,3.3E1,4.3E1,2.1401E4,5.45E2,1E1,2.3E1,1.6E1,2.7E1,2.0257E4,1.144E3,4.57E2,8.8E1,5E0,5E0,8E0,1.5E1,8E0,8E0,2.1E1,6E0,1.9673E4,5.84E2,6.3E2,5.14E2,4.34E2,2.3E1,2.5E1,6.3E1,3E0,2E0,3E0,2E0,1E0,1.4E1,1E0,7E0,5E0,1.6E1,5E0,1E0,1.9117E4,5.56E2,1.4E1,5.7E2,3.35E2,2.95E2,1.38E2,3.76E2,2.96E2,1.38E2,6E0,1.7E1,4E0,2.1E1,4.2E1,2.1E1,2E0,1E0,1E0,1.3E1,4E0,3E0,3E0,2E0,6E0,1E1,1E0,4E0,5.19E2,1.8598E4,5.1E1,5.05E2,1E0,1.3E1,5.06E2,6.4E1,2.41E2,9.4E1,1.29E2,1.66E2,7.6E1,6.2E1,3.42E2,3.4E1,2.74E2,2.2E1,7E1,6.8E1,3E0,1.8E1,3.5E1,7E0,4E0,1.7E1],"tree_param":{"num_deleted":"0","num_feature":"66","num_nodes":"97","size_leaf_vector":"0"}},{"base_weights":[1.1163553E-1,1.0654435E0,1.1037288E-1,-5.63065E-1,1.7126403E0,-5.701237E-1,1.1263379E-1,-1.8880198E0,4.1408232E-1,2.0917718E0,-4.216113E-1,-1.6643488E0,-4.0984443E-1,3.0568805E-1,1.0637394E-1,-6.544757E-1,1.1119802E0,7.718538E-1,2.4137588E0,1.2791204E0,-1.4148954E0,-4.9085677E-1,-1.7496781E0,1.2875533E-1,-6.351086E-1,2.5362077E-1,7.2786975E-1,1.3866484E-1,6.442062E-2,-9.9085677E-1,9.143233E-3,1.6074086E0,1.6111296E-1,3.4698431E0,1.187965E0,7.562923E-1,-4.5343783E-1,-1.3542283E0,-2.7817407E-1,9.6022916E-1,2.0924854E-1,1.7951436E0,4.3113223E-1,3.086737E-1,1.0419936E-1,-9.539549E-2,1.2494126E-1,-2.190122E0,2.6790142E0,-6.278394E-1,1.1808052E0,3.77908E-1,-9.8247945E-1,-3.174762E-1,-1.58696E0,-4.8672578E-1,1.3033694E0,1.5978199E-1,1.261948E0,-5.563681E-1,3.1392288E-1,7.1434444E-1,2.7866497E0,-6.08804E-1,6.028302E-1,5.6828445E-1,1.10530816E-1,1.1797457E-1,-5.2071266E-2,-1.3031393E-1,2.9638478E-1,1.8187901E-1,3.028181E-2],"categories":[],"categories_nodes":[],"categories_segments":[],"categories_sizes":[],"default_left":[1,1,1,1,1,1,1,0,1,1,1,1,1,1,1,1,0,1,1,0,0,0,0,1,1,1,1,1,1,0,0,0,0,0,1,1,1,1,1,1,1,1,1,1,1,1,1,0,0,0,0,0,0,0,0,0,0,0,0,0,0,0,0,0,0,0,0,0,0,0,0,0,0],"id":8,"left_children":[1,3,5,7,9,11,13,-1,15,17,19,21,23,25,27,29,-1,31,33,-1,-1,-1,-1,35,37,39,41,43,45,-1,-1,-1,-1,-1,47,49,51,53,55,57,59,61,63,65,67,69,71,-1,-1,-1,-1,-1,-1,-1,-1,-1,-1,-1,-1,-1,-1,-1,-1,-1,-1,-1,-1,-1,-1,-1,-1,-1,-1],"loss_changes":[2.6405334E1,3.1529327E1,3.390439E1,1.243388E1,1.7874313E1,1.2120728E1,2.6461212E1,0E0,5.2022305E0,5.786865E0,8.567061E0,4.23584E-2,7.9680414E0,1.4938911E1,2.875972E1,6.7874634E-1,0E0,2.292563E0,1.4001526E1,0E0,0E0,0E0,0E0,7.6498866E0,1.1430508E1,1.90503E1,2.2978569E1,7.027524E1,8.9363464E1,0E0,0E0,0E0,0E0,0E0,4.616252E1,6.6171727E0,5.2092695E0,3.1154537E0,1.1189059E1,8.492725E0,4.657596E1,1.5155277E1,1.1080301E1,1.039489E2,2.1485405E1,3.475937E1,3.611084E1,0E0,0E0,0E0,0E0,0E0,0E0,0E0,0E0,0E0,0E0,0E0,0E0,0E0,0E0,0E0,0E0,0E0,0E0,0E0,0E0,0E0,0E0,0E0,0E0,0E0,0E0],"parents":[2147483647,0,0,1,1,2,2,3,3,4,4,5,5,6,6,8,8,9,9,10,10,11,11,12,12,13,13,14,14,15,15,17,17,18,18,23,23,24,24,25,25,26,26,27,27,28,28,34,34,35,35,36,36,37,37,38,38,39,39,40,40,41,41,42,42,43,43,44,44,45,45,46,46],"right_children":[2,4,6,8,10,12,14,-1,16,18,20,22,24,26,28,30,-1,32,34,-1,-1,-1,-1,36,38,40,42,44,46,-1,-1,-1,-1,-1,48,50,52,54,56,58,60,62,64,66,68,70,72,-1,-1,-1,-1,-1,-1,-1,-1,-1,-1,-1,-1,-1,-1,-1,-1,-1,-1,-1,-1,-1,-1,-1,-1,-1,-1],"split_conditions":[-1.8042564E-1,1.020759E0,-8.290658E-2,-2.920918E-1,1.4150071E0,-1.4224386E-1,6.4855E-1,-5.6640595E-1,8.667836E-1,1.088352E0,3.725E-2,-1.7899796E-1,-1.1395705E-1,7.3332083E-1,2.846508E-1,-2.2061947E-1,3.3359408E-1,-2.814603E-1,-2.2027743E-1,3.8373616E-1,-4.2446864E-1,-1.4725703E-1,-5.249035E-1,1.4906E0,5.4943E0,1.5353683E-1,7.6799905E-1,2.65E1,2.8750002E-1,-2.9725704E-1,2.7429701E-3,4.8222262E-1,4.833389E-2,1.040953E0,-1.9508159E-1,-1.3310876E-1,-1.2352304E-1,-9.5752515E-2,-8.7715864E-2,9.851534E-2,2.1576765E-1,1.9104688E-1,7.919085E-1,1.8454483E0,2.521897E-1,2.1407385E0,4.6953124E-1,-6.570366E-1,8.037043E-1,-1.8835182E-1,3.5424158E-1,1.133724E-1,-2.9474384E-1,-9.5242865E-2,-4.7608802E-1,-1.4601775E-1,3.9101085E-1,4.79346E-2,3.785844E-1,-1.6691044E-1,9.4176866E-2,2.1430334E-1,8.3599496E-1,-1.8264121E-1,1.8084906E-1,1.7048535E-1,3.3159245E-2,3.5392374E-2,-1.562138E-2,-3.909418E-2,8.891544E-2,5.4563705E-2,9.084543E-3],"split_indices":[63,64,63,63,64,63,54,0,64,64,0,63,63,63,63,63,0,63,63,0,0,0,0,32,13,64,63,40,27,0,0,0,0,0,63,63,63,63,63,64,64,64,63,64,63,64,63,0,0,0,0,0,0,0,0,0,0,0,0,0,0,0,0,0,0,0,0,0,0,0,0,0,0],"split_type":[0,0,0,0,0,0,0,0,0,0,0,0,0,0,0,0,0,0,0,0,0,0,0,0,0,0,0,0,0,0,0,0,0,0,0,0,0,0,0,0,0,0,0,0,0,0,0,0,0,0,0,0,0,0,0,0,0,0,0,0,0,0,0,0,0,0,0,0,0,0,0,0,0],"sum_hessian":[2.2022E4,2.8E1,2.1994E4,8E0,2E1,7.2E1,2.1922E4,3E0,5E0,1.7E1,3E0,8E0,6.4E1,6.87E2,2.1235E4,2E0,3E0,4E0,1.3E1,1E0,2E0,1E0,7E0,1.9E1,4.5E1,6.13E2,7.4E1,1.1998E4,9.237E3,1E0,1E0,1E0,3E0,6E0,7E0,9E0,1E1,1.4E1,3.1E1,3.5E1,5.78E2,1.5E1,5.9E1,2.021E3,9.977E3,2.537E3,6.7E3,2E0,5E0,2E0,7E0,4E0,6E0,3E0,1.1E1,2.8E1,3E0,1E1,2.5E1,6.9E1,5.09E2,8E0,7E0,8E0,5.1E1,8.74E2,1.147E3,9.169E3,8.08E2,2.33E3,2.07E2,4.183E3,2.517E3],"tree_param":{"num_deleted":"0","num_feature":"66","num_nodes":"73","size_leaf_vector":"0"}},{"base_weights":[7.823006E-2,-4.8767235E-3,8.982321E-2,-8.084343E-2,6.986469E-2,1.5302703E-1,7.101217E-2,-3.1815645E-1,1.0873552E-2,2.509165E-1,-2.6651705E-3,2.4434745E-1,7.209034E-2,-2.21225E-1,8.261267E-2,-3.770081E-1,2.9961833E-1,-6.2217593E-2,1.6284057E-1,7.35087E-1,5.9810568E-2,-1.7510828E-2,9.4565517E-1,7.990786E-2,4.7198498E-1,5.888997E-2,8.960572E-1,8.623872E-3,-5.479405E-1,1.6063294E-1,6.2456347E-2,-8.30506E-2,-4.6826774E-1,-1.0999809E-1,6.9161016E-1,-3.5035187E-1,3.2782346E-2,-5.9139585E-1,2.2448605E-1,-1.3200155E-1,1.0471557E0,-4.5447245E-1,2.0815928E-1,1.0020907E-1,-6.8011306E-2,3.8175833E-1,1.727874E0,3.8861912E-1,-6.7948945E-2,1.1890957E0,3.981414E-1,1.2828712E-1,-9.0464845E-2,1.1789608E0,-4.8480985E-1,1.5352747E-1,-4.5517543E-1,-1.1207066E0,-4.1012684E-1,3.2198277E-1,-3.5855863E-2,-3.805162E-1,8.613368E-2,4.9812517E-1,-7.3660654E-1,-7.5753325E-1,-2.6742637E-1,1.5353374E-1,-7.7318126E-1,3.469285E-1,1.1344513E0,-2.276186E-1,-7.315973E-1,-6.584259E-2,2.378406E-1,-9.689506E-1,-5.7108305E-2,-4.3255884E-2,4.0997759E-1,9.702843E-2,-1.0642928E0,1.1364561E0,-5.375017E-1,-6.8454766E-1,5.8039284E-1,5.1362747E-1,-9.642427E-2,-2.1673413E-1,2.7518186E-1,-1.9810097E-1,2.5654186E-2,1.4990368E-1,5.1134413E-1,4.5714512E-1,-5.185455E-1,-9.3600565E-1,-4.5048892E-2,4.902448E-1,1.3535783E0,1.9463238E-1,5.568527E-1,1.07236825E-1,1.0038121E0,-1.2706317E-1,9.990547E-1,-4.3056172E-1,1.3667868E0,3.368578E-1,-8.8084847E-1,3.1716707E-1,-2.2397277E-1,-7.388338E-1,1.2899967E-1,-1.2666925E0,3.00519E-1,-2.1580112E-1,-8.6317676E-1,1.00652136E-1,4.907704E-1,-5.0497737E-2,1.0954E0,-5.3758806E-1,3.0025718E-1,2.0589256E-1,5.7851046E-2],"categories":[],"categories_nodes":[],"categories_segments":[],"categories_sizes":[],"default_left":[1,1,1,1,1,1,1,1,1,1,1,1,1,1,1,1,1,1,1,1,1,1,1,1,1,1,1,1,1,1,1,1,1,1,1,1,1,1,1,1,1,1,1,1,1,1,0,1,1,1,1,1,1,1,1,1,1,1,1,1,1,1,1,0,0,0,0,0,0,0,0,0,0,0,0,0,0,0,0,0,0,0,0,0,0,0,0,0,0,0,0,0,0,0,0,0,0,0,0,0,0,0,0,0,0,0,0,0,0,0,0,0,0,0,0,0,0,0,0,0,0,0,0,0,0],"id":9,"left_children":[1,3,5,7,9,11,13,15,17,19,21,23,25,27,29,31,33,35,37,39,41,43,45,47,49,51,53,55,57,59,61,63,65,67,69,71,73,75,77,79,81,83,85,87,89,91,-1,93,95,97,99,101,103,105,107,109,111,113,115,117,119,121,123,-1,-1,-1,-1,-1,-1,-1,-1,-1,-1,-1,-1,-1,-1,-1,-1,-1,-1,-1,-1,-1,-1,-1,-1,-1,-1,-1,-1,-1,-1,-1,-1,-1,-1,-1,-1,-1,-1,-1,-1,-1,-1,-1,-1,-1,-1,-1,-1,-1,-1,-1,-1,-1,-1,-1,-1,-1,-1,-1,-1,-1,-1],"loss_changes":[2.1218918E1,1.5318834E1,2.2967575E1,2.9125877E1,1.7859734E1,3.2740067E1,5.051716E1,1.3674141E1,1.07399235E1,3.5949364E1,1.3700802E1,7.789701E1,2.5518286E1,4.2733894E1,2.2522202E1,9.1089325E0,5.374764E0,1.7885881E1,1.4732273E1,2.9903275E1,2.1456707E1,5.70204E0,5.95673E0,5.5256927E1,4.5755417E1,2.4006113E1,1.5025703E1,2.2583952E1,1.8090096E1,9.325136E1,1.1947478E2,3.1513058E1,1.4902504E1,3.0897975E0,2.201293E0,7.413698E0,9.965797E0,4.7860117E0,1.4469919E1,6.5089464E0,1.2073196E1,1.5397408E1,2.0332375E1,1.6031094E1,8.181159E0,2.237984E-1,0E0,2.4605484E1,1.623836E1,8.64727E0,2.5504868E1,2.903028E1,2.9434763E1,9.960106E0,2.5746055E0,1.58851795E1,1.3351803E1,9.7172165E0,1.6629227E1,6.028357E1,2.2035345E1,6.1967163E1,3.6606003E1,0E0,0E0,0E0,0E0,0E0,0E0,0E0,0E0,0E0,0E0,0E0,0E0,0E0,0E0,0E0,0E0,0E0,0E0,0E0,0E0,0E0,0E0,0E0,0E0,0E0,0E0,0E0,0E0,0E0,0E0,0E0,0E0,0E0,0E0,0E0,0E0,0E0,0E0,0E0,0E0,0E0,0E0,0E0,0E0,0E0,0E0,0E0,0E0,0E0,0E0,0E0,0E0,0E0,0E0,0E0,0E0,0E0,0E0,0E0,0E0,0E0,0E0],"parents":[2147483647,0,0,1,1,2,2,3,3,4,4,5,5,6,6,7,7,8,8,9,9,10,10,11,11,12,12,13,13,14,14,15,15,16,16,17,17,18,18,19,19,20,20,21,21,22,22,23,23,24,24,25,25,26,26,27,27,28,28,29,29,30,30,31,31,32,32,33,33,34,34,35,35,36,36,37,37,38,38,39,39,40,40,41,41,42,42,43,43,44,44,45,45,47,47,48,48,49,49,50,50,51,51,52,52,53,53,54,54,55,55,56,56,57,57,58,58,59,59,60,60,61,61,62,62],"right_children":[2,4,6,8,10,12,14,16,18,20,22,24,26,28,30,32,34,36,38,40,42,44,46,48,50,52,54,56,58,60,62,64,66,68,70,72,74,76,78,80,82,84,86,88,90,92,-1,94,96,98,100,102,104,106,108,110,112,114,116,118,120,122,124,-1,-1,-1,-1,-1,-1,-1,-1,-1,-1,-1,-1,-1,-1,-1,-1,-1,-1,-1,-1,-1,-1,-1,-1,-1,-1,-1,-1,-1,-1,-1,-1,-1,-1,-1,-1,-1,-1,-1,-1,-1,-1,-1,-1,-1,-1,-1,-1,-1,-1,-1,-1,-1,-1,-1,-1,-1,-1,-1,-1,-1,-1],"split_conditions":[5.6635E-1,2.2704337E0,1.615501E-1,1.1205E-1,2.6633804E0,2.4465976E0,2.0927E0,1.26135E0,1.7992285E0,1.125E-2,8.059233E0,2.0091288E0,4.8550002E-2,1.8235758E-1,2.3495448E-1,1.8334064E0,7.684439E-2,1.403E-1,1.048935E-1,2.3409915E0,1.691E-1,1.1355E-1,2.8855002E-1,1.5418E0,1.0659499E0,1.1718027E-1,7.05E-2,8.95E1,1.4788E0,2.006124E0,2.4116E0,2.05E-3,2.8245002E-1,2.6141837E-2,2.8765E-1,2.4595726E-1,1.3863596E0,2.3210001E-1,8.2535E-1,9.85E1,1.8428208E-1,1.3642293E-1,3.7500001E-3,1.8254148E-2,3.6975632E0,8.927544E0,5.183622E-1,3.4758E0,6.275E-2,3.49965E0,7.924E-1,6.8445003E-1,4.1108723E0,3.672816E-2,8.8014446E-2,2.1829996E0,2.6500002E-3,3.0495148E0,2.0407233E-1,1.6622686E0,1.55545E0,2.0935388E0,2.9615363E-1,1.4943756E-1,-2.2098197E-1,-2.2725998E-1,-8.022791E-2,4.6060123E-2,-2.3195438E-1,1.0407855E-1,3.403354E-1,-6.8285584E-2,-2.194792E-1,-1.9752778E-2,7.1352184E-2,-2.906852E-1,-1.7132493E-2,-1.2976766E-2,1.2299328E-1,2.910853E-2,-3.1928784E-1,3.4093684E-1,-1.6125052E-1,-2.053643E-1,1.7411786E-1,1.5408824E-1,-2.8927281E-2,-6.502024E-2,8.2554564E-2,-5.9430294E-2,7.696256E-3,4.497111E-2,1.5340325E-1,1.3714354E-1,-1.5556365E-1,-2.808017E-1,-1.3514669E-2,1.4707345E-1,4.060735E-1,5.8389716E-2,1.6705582E-1,3.217105E-2,3.0114365E-1,-3.811895E-2,2.997164E-1,-1.2916853E-1,4.1003606E-1,1.0105734E-1,-2.6425454E-1,9.515013E-2,-6.719183E-2,-2.2165014E-1,3.8699903E-2,-3.8000777E-1,9.01557E-2,-6.474034E-2,-2.5895303E-1,3.0195642E-2,1.4723113E-1,-1.5149321E-2,3.2862002E-1,-1.6127643E-1,9.0077154E-2,6.176777E-2,1.7355315E-2],"split_indices":[56,64,63,9,64,64,19,21,64,0,64,64,1,63,63,64,63,9,63,64,47,8,28,61,26,63,1,33,23,64,19,50,10,63,30,63,64,62,54,33,63,63,50,63,64,64,0,19,27,13,54,47,64,63,63,64,43,64,63,64,20,64,63,0,0,0,0,0,0,0,0,0,0,0,0,0,0,0,0,0,0,0,0,0,0,0,0,0,0,0,0,0,0,0,0,0,0,0,0,0,0,0,0,0,0,0,0,0,0,0,0,0,0,0,0,0,0,0,0,0,0,0,0,0,0],"split_type":[0,0,0,0,0,0,0,0,0,0,0,0,0,0,0,0,0,0,0,0,0,0,0,0,0,0,0,0,0,0,0,0,0,0,0,0,0,0,0,0,0,0,0,0,0,0,0,0,0,0,0,0,0,0,0,0,0,0,0,0,0,0,0,0,0,0,0,0,0,0,0,0,0,0,0,0,0,0,0,0,0,0,0,0,0,0,0,0,0,0,0,0,0,0,0,0,0,0,0,0,0,0,0,0,0,0,0,0,0,0,0,0,0,0,0,0,0,0,0,0,0,0,0,0,0],"sum_hessian":[2.2022E4,2.696E3,1.9326E4,1.337E3,1.359E3,4.431E3,1.4895E4,3.72E2,9.65E2,3.88E2,9.71E2,2.081E3,2.35E3,5.68E2,1.4327E4,3.4E2,3.2E1,6.52E2,3.13E2,1.09E2,2.79E2,9.57E2,1.4E1,1.209E3,8.72E2,2.314E3,3.6E1,3.34E2,2.34E2,2.94E3,1.1387E4,8.1E1,2.59E2,1.6E1,1.6E1,1.61E2,4.91E2,2.3E1,2.9E2,2.9E1,8E1,6.2E1,2.17E2,2.87E2,6.7E2,9E0,5E0,3.91E2,8.18E2,8E1,7.92E2,1.58E3,7.34E2,3E1,6E0,2.55E2,7.9E1,4.4E1,1.9E2,1.614E3,1.326E3,5.77E2,1.081E4,4.3E1,3.8E1,1.05E2,1.54E2,1.2E1,4E0,1E1,6E0,1.23E2,3.8E1,3.32E2,1.59E2,1.3E1,1E1,1.19E2,1.71E2,2.4E1,5E0,7.6E1,4E0,5.1E1,1.1E1,1.08E2,1.09E2,1.02E2,1.85E2,2.8E2,3.9E2,4E0,5E0,3.64E2,2.7E1,2E1,7.98E2,1.6E1,6.4E1,3.48E2,4.44E2,1.544E3,3.6E1,7.11E2,2.3E1,3E0,2.7E1,2E0,4E0,1.78E2,7.7E1,5.3E1,2.6E1,4E1,4E0,1.34E2,5.6E1,6.99E2,9.15E2,1.31E3,1.6E1,4.69E2,1.08E2,2.064E3,8.746E3],"tree_param":{"num_deleted":"0","num_feature":"66","num_nodes":"125","size_leaf_vector":"0"}},{"base_weights":[5.4807395E-2,9.737053E-2,3.712599E-2,2.041282E-1,6.14408E-2,-8.249833E-1,3.923389E-2,9.5228635E-2,3.9036927E-1,9.891808E-2,-3.360376E-1,-1.2956768E0,-4.2376631E-1,3.667793E-2,3.463812E-1,1.6888656E-1,-1.4997575E-1,5.8441406E-1,1.7240244E-1,2.4918863E-1,7.323012E-2,-7.7584374E-1,-2.1773767E-1,-7.5213546E-1,-1.5237781E0,2.2207405E-1,-8.086804E-1,4.147892E-2,-1.741546E-1,1.5181845E0,1.8915808E-1,3.948659E-1,2.549573E-2,-1.1519856E-2,-8.783878E-1,2.6799855E-1,1.0747383E0,3.5241795E-1,-1.5725355E-1,6.1200714E-1,-1.3672712E-2,-2.2346416E-1,1.0340599E-1,-5.7286435E-1,-1.0813738E0,2.010856E-2,-4.285164E-1,-1.4237404E-1,-8.300333E-1,-7.35746E-2,3.821608E-1,-1.3351209E0,-5.437311E-1,-1.3448502E-1,4.614303E-2,9.5811015E-1,-2.7004415E-1,1.7276977E0,7.536186E-1,-2.577072E-1,4.8432687E-1,7.192323E-1,1.5575072E-1,1.3189371E-1,-3.427385E-1,2.9592684E-1,-3.3127227E-1,-6.367096E-1,-1.294176E0,6.446477E-1,8.620389E-2,1.1117355E0,-3.1311166E-1,2.0824918E-1,8.2031435E-1,-2.6543948E-1,1.3334488E0,7.1616817E-1,-1.3512038E-1,2.8429955E-2,-7.247572E-1,-4.6191767E-1,-8.497087E-2,1.3657334E-1,-1.7093869E-2,-1.2686766E0,-4.2743507E-1,-1.2651293E0,-6.390614E-1,-2.5861004E-1,4.9550566E-1,-4.8983878E-1,6.32287E-1,-2.8343654E-1,9.085822E-2,4.1672346E-1,1.0467374E-1,-1.4127548E-1,-6.1746836E-1,-5.4693073E-1,3.782894E-1,4.429418E-2,4.6079847E-1,5.531291E-1,1.2946547E0,7.5537467E-1,-3.0937415E-1,-2.0606554E-1,1.0450561E0,1.8963732E-1,-4.593466E-1,9.557563E-1,7.458822E-2],"categories":[],"categories_nodes":[],"categories_segments":[],"categories_sizes":[],"default_left":[1,1,1,1,1,1,1,1,1,1,1,1,1,1,1,1,1,1,1,1,1,1,1,1,0,1,1,1,1,1,1,1,1,1,1,1,1,1,1,1,1,1,1,1,1,1,1,0,0,1,1,0,1,1,1,1,1,0,1,1,1,0,0,0,0,0,0,0,0,0,0,0,0,0,0,0,0,0,0,0,0,0,0,0,0,0,0,0,0,0,0,0,0,0,0,0,0,0,0,0,0,0,0,0,0,0,0,0,0,0,0,0,0],"id":10,"left_children":[1,3,5,7,9,11,13,15,17,19,21,23,25,27,29,31,33,35,37,39,41,43,45,47,-1,49,51,53,55,57,59,61,63,65,67,69,71,73,75,77,79,81,83,85,87,89,91,-1,-1,93,95,-1,97,99,101,103,105,-1,107,109,111,-1,-1,-1,-1,-1,-1,-1,-1,-1,-1,-1,-1,-1,-1,-1,-1,-1,-1,-1,-1,-1,-1,-1,-1,-1,-1,-1,-1,-1,-1,-1,-1,-1,-1,-1,-1,-1,-1,-1,-1,-1,-1,-1,-1,-1,-1,-1,-1,-1,-1,-1,-1],"loss_changes":[1.6570366E1,2.4778069E1,2.831043E1,3.2960945E1,7.208717E1,6.627245E0,1.21744995E1,1.8592285E1,2.5276443E1,1.7047451E1,2.1527176E1,9.616146E-1,5.648633E0,1.5592134E1,2.3294846E1,2.5620995E1,2.3992878E1,4.889331E1,1.6908882E1,6.152264E1,3.3838627E1,4.8379555E0,1.6552483E1,2.1431875E-1,0E0,4.5408222E-1,1.2267742E0,1.236207E1,3.7499054E1,1.1007767E0,1.5161492E1,2.3699188E1,1.9047205E1,1.9857702E1,2.9944916E0,1.3228152E1,6.7150726E0,1.2241085E1,1.6642523E1,2.1186417E1,1.1247562E1,1.1486198E1,1.3706882E1,5.0232544E0,1.954937E0,2.0798456E1,1.1693642E1,0E0,0E0,1.637853E-1,1.3924122E-2,0E0,2.3920274E-1,8.2477135E1,1.1223829E1,2.9638329E0,1.3018219E1,0E0,1.6137896E0,4.2364135E0,1.3256948E1,0E0,0E0,0E0,0E0,0E0,0E0,0E0,0E0,0E0,0E0,0E0,0E0,0E0,0E0,0E0,0E0,0E0,0E0,0E0,0E0,0E0,0E0,0E0,0E0,0E0,0E0,0E0,0E0,0E0,0E0,0E0,0E0,0E0,0E0,0E0,0E0,0E0,0E0,0E0,0E0,0E0,0E0,0E0,0E0,0E0,0E0,0E0,0E0,0E0,0E0,0E0,0E0],"parents":[2147483647,0,0,1,1,2,2,3,3,4,4,5,5,6,6,7,7,8,8,9,9,10,10,11,11,12,12,13,13,14,14,15,15,16,16,17,17,18,18,19,19,20,20,21,21,22,22,23,23,25,25,26,26,27,27,28,28,29,29,30,30,31,31,32,32,33,33,34,34,35,35,36,36,37,37,38,38,39,39,40,40,41,41,42,42,43,43,44,44,45,45,46,46,49,49,50,50,52,52,53,53,54,54,55,55,56,56,58,58,59,59,60,60],"right_children":[2,4,6,8,10,12,14,16,18,20,22,24,26,28,30,32,34,36,38,40,42,44,46,48,-1,50,52,54,56,58,60,62,64,66,68,70,72,74,76,78,80,82,84,86,88,90,92,-1,-1,94,96,-1,98,100,102,104,106,-1,108,110,112,-1,-1,-1,-1,-1,-1,-1,-1,-1,-1,-1,-1,-1,-1,-1,-1,-1,-1,-1,-1,-1,-1,-1,-1,-1,-1,-1,-1,-1,-1,-1,-1,-1,-1,-1,-1,-1,-1,-1,-1,-1,-1,-1,-1,-1,-1,-1,-1,-1,-1,-1,-1],"split_conditions":[-5.2E-2,2.8193977E-1,5.941142E-1,1.5920001E-1,2.05E1,2.6999999E-2,6.3530803E0,2.2150204E-1,1.8173983E0,3.539344E-1,1.5529E0,5.644802E-1,6.55444E-1,5.122986E0,3.145E-2,5.3E1,1.50385E0,1.875E3,1.15695E0,1.4045019E0,3.37645E0,1.4576187E0,3.3218893E-1,6.094369E-1,-4.5713344E-1,5.387311E-1,6.611664E-1,8.4514415E-1,-5.1944315E-2,1.725E-2,-9.149991E-3,2.0873132E0,1.6422698E-1,1.779577E0,2.4851397E-1,6.40265E0,2.9708E0,7.049875E1,1.47367E1,4.535E-2,1.243E-1,1.98E-2,6.2475014E-1,3.6900002E-1,2.0390716E0,2.0315E-1,2.2801936E0,-4.271221E-2,-2.4901E-1,1.168E-1,3.8309498E0,-4.005363E-1,6.704454E-1,1.868385E1,5.019927E0,1.425E-2,2.3265001E-1,5.1830935E-1,-1.2536306E-2,1.015E-2,1.8E-2,2.1576971E-1,4.6725217E-2,3.9568115E-2,-1.0282156E-1,8.8778056E-2,-9.9381685E-2,-1.9101287E-1,-3.8825282E-1,1.9339432E-1,2.5861168E-2,3.3352065E-1,-9.39335E-2,6.2474757E-2,2.4609432E-1,-7.963185E-2,4.0003464E-1,2.1485046E-1,-4.0536113E-2,8.528987E-3,-2.1742716E-1,-1.385753E-1,-2.5491262E-2,4.0972006E-2,-5.128161E-3,-3.8060302E-1,-1.2823053E-1,-3.795388E-1,-1.9171843E-1,-7.7583015E-2,1.486517E-1,-1.4695165E-1,1.8968612E-1,-8.5030966E-2,2.7257467E-2,1.2501705E-1,3.1402126E-2,-4.2382646E-2,-1.852405E-1,-1.6407922E-1,1.1348683E-1,1.3288254E-2,1.3823955E-1,1.6593874E-1,3.8839644E-1,2.266124E-1,-9.281225E-2,-6.181966E-2,3.1351686E-1,5.68912E-2,-1.3780399E-1,2.867269E-1,2.2376467E-2],"split_indices":[21,63,64,55,33,3,64,63,64,63,45,64,63,64,3,33,61,37,30,64,19,64,63,63,0,64,63,64,63,1,63,64,63,64,63,25,26,7,13,4,62,58,63,22,64,27,64,0,0,0,2,0,63,12,64,0,24,0,63,0,51,0,0,0,0,0,0,0,0,0,0,0,0,0,0,0,0,0,0,0,0,0,0,0,0,0,0,0,0,0,0,0,0,0,0,0,0,0,0,0,0,0,0,0,0,0,0,0,0,0,0,0,0],"split_type":[0,0,0,0,0,0,0,0,0,0,0,0,0,0,0,0,0,0,0,0,0,0,0,0,0,0,0,0,0,0,0,0,0,0,0,0,0,0,0,0,0,0,0,0,0,0,0,0,0,0,0,0,0,0,0,0,0,0,0,0,0,0,0,0,0,0,0,0,0,0,0,0,0,0,0,0,0,0,0,0,0,0,0,0,0,0,0,0,0,0,0,0,0,0,0,0,0,0,0,0,0,0,0,0,0,0,0,0,0,0,0,0,0],"sum_hessian":[2.2022E4,6.462E3,1.556E4,1.626E3,4.836E3,3.7E1,1.5523E4,1.027E3,5.99E2,4.42E3,4.16E2,1.6E1,2.1E1,1.5396E4,1.27E2,7.9E2,2.37E2,3.16E2,2.83E2,6.44E2,3.776E3,8.7E1,3.29E2,6E0,1E1,8E0,1.3E1,1.5054E4,3.42E2,1.4E1,1.13E2,3.06E2,4.84E2,2E2,3.7E1,1.93E2,1.23E2,1.83E2,1E2,2.7E2,3.74E2,3.48E2,3.428E3,5.4E1,3.3E1,1.55E2,1.74E2,1E0,5E0,3E0,5E0,3E0,1E1,3.88E2,1.4666E4,2.6E1,3.16E2,1E1,4E0,4.5E1,6.8E1,1.29E2,1.77E2,3.76E2,1.08E2,1.02E2,9.8E1,2.5E1,1.2E1,6.2E1,1.31E2,1.2E2,3E0,1.41E2,4.2E1,9.4E1,6E0,2.37E2,3.3E1,3.54E2,2E1,1.27E2,2.21E2,2.688E3,7.4E2,8E0,4.6E1,2.2E1,1.1E1,9.8E1,5.7E1,1.65E2,9E0,1E0,2E0,4E0,1E0,2E0,8E0,2.15E2,1.73E2,1.4602E4,6.4E1,1.3E1,1.3E1,1.1E1,3.05E2,1E0,3E0,1.4E1,3.1E1,3.1E1,3.7E1],"tree_param":{"num_deleted":"0","num_feature":"66","num_nodes":"113","size_leaf_vector":"0"}},{"base_weights":[3.836867E-2,9.331581E-4,5.354252E-2,-7.185641E-2,4.8712928E-2,4.195421E-2,1.2190072E-1,-2.5685066E-1,3.5249726E-3,7.066119E-3,1.15078345E-1,-2.678341E-1,4.8055798E-2,2.6134747E-1,8.767902E-2,-2.723087E-1,1.3764368E0,9.827819E-2,-1.1175465E-1,-2.4213966E-4,5.219735E-1,2.7400944E-1,4.283745E-2,-7.6936436E-1,1.7748854E-1,8.7970406E-2,2.150402E-2,2.1940775E-1,1.0615737E0,-6.3830596E-1,1.076484E-1,-1.3967307E-1,-4.8288414E-1,1.4975516E0,3.2487428E-1,-3.7444952E-5,2.699187E-1,-6.9483165E-3,-4.9359524E-1,1.0119191E0,-2.4215386E-3,6.0820144E-2,1.4387511E0,-9.1427915E-2,4.025004E-1,7.313981E-2,-3.1337196E-1,-1.0113152E0,-4.6614873E-1,8.5256046E-1,-1.583265E-1,7.361088E-2,4.427967E-1,-5.788334E-1,3.3444397E-2,2.8423876E-1,-3.223318E-1,1.9814003E0,2.7235532E-1,-9.999128E-1,-3.7595794E-1,5.8383472E-2,2.5766683E-1,6.8767685E-1,-2.1197775E-1,-7.340242E-1,-2.2096549E-1,-6.317214E-2,4.3791E-1,4.387394E-2,4.3649602E-1,1.8682528E-2,-3.6927626E-1,-1.4748497E0,-4.0520296E-1,1.2670711E0,4.1946077E-1,-2.5402904E-2,9.565862E-2,-5.624483E-1,2.651974E-1,3.5398516E-1,1.6404786E0,2.4926938E-1,-2.6915115E-1,4.8924366E-1,-2.4625494E-1,-1.6147457E-1,1.3014497E-1,-1.0828369E0,5.6072757E-2,5.628998E-1,-1.0436958E0,-5.917911E-1,2.5573826E-1,9.280347E-1,-1.2718903E0,-5.4066145E-1,1.4042933E-1,7.1426034E-2,1.6364958E0,8.5751593E-1,1.51233E-1,-7.8059024E-1,-1.3056688E-1,7.597844E-2,-5.276746E-2,2.1822241E-1,9.9741006E-1,-1.2177243E0,2.4454398E-1,2.66742E0,7.618965E-1,-4.5702478E-1,9.628275E-1,-3.899978E-1,-1.0846038E0,-2.4263376E-1,-9.94052E-1,2.2378378E-1,-3.9199363E-2,3.3281675E-1,-1.8786496E-1],"categories":[],"categories_nodes":[],"categories_segments":[],"categories_sizes":[],"default_left":[1,1,1,1,1,1,1,1,1,1,1,1,1,1,1,1,1,1,1,1,1,1,1,1,1,1,1,1,1,1,1,1,1,0,0,1,1,1,1,1,1,1,1,1,1,1,1,1,1,1,1,1,1,1,1,1,1,1,1,1,1,1,1,0,0,0,0,0,0,0,0,0,0,0,0,0,0,0,0,0,0,0,0,0,0,0,0,0,0,0,0,0,0,0,0,0,0,0,0,0,0,0,0,0,0,0,0,0,0,0,0,0,0,0,0,0,0,0,0,0,0,0,0],"id":11,"left_children":[1,3,5,7,9,11,13,15,17,19,21,23,25,27,29,31,33,35,37,39,41,43,45,47,49,51,53,55,57,59,61,63,65,-1,-1,67,69,71,73,75,77,79,81,83,85,87,89,91,93,95,97,99,101,103,105,107,109,111,113,115,117,119,121,-1,-1,-1,-1,-1,-1,-1,-1,-1,-1,-1,-1,-1,-1,-1,-1,-1,-1,-1,-1,-1,-1,-1,-1,-1,-1,-1,-1,-1,-1,-1,-1,-1,-1,-1,-1,-1,-1,-1,-1,-1,-1,-1,-1,-1,-1,-1,-1,-1,-1,-1,-1,-1,-1,-1,-1,-1,-1,-1,-1],"loss_changes":[1.2509914E1,2.20984E1,1.2408768E1,3.5114716E1,1.0601538E1,2.5343466E1,1.0814537E1,1.8780186E1,1.9563356E1,8.873461E0,1.6969137E1,5.7982323E1,1.3927111E1,1.4768974E1,2.6526594E1,2.0125809E1,4.0500164E-1,1.6588081E1,3.2332176E1,5.1333814E0,1.3864072E1,2.1730198E1,1.1011196E1,8.478905E0,3.1419487E1,2.6716877E1,5.660556E1,1.5053385E1,1.5431122E1,4.2725506E0,1.3118135E1,2.6766243E1,1.8189949E1,0E0,0E0,1.7336363E1,1.34609585E1,5.9039984E0,1.4494335E1,2.2434807E-1,5.236255E0,3.078944E0,1.8263912E0,7.393619E0,1.9366581E1,1.2579419E1,2.2802696E1,4.002754E0,5.230521E0,8.556061E0,1.0698832E1,1.7116909E1,2.45374E1,1.3825966E1,2.8389782E1,1.7720188E1,2.36463E1,6.33374E0,6.987053E0,6.100941E-1,2.2310157E0,2.1620539E1,1.4760977E1,0E0,0E0,0E0,0E0,0E0,0E0,0E0,0E0,0E0,0E0,0E0,0E0,0E0,0E0,0E0,0E0,0E0,0E0,0E0,0E0,0E0,0E0,0E0,0E0,0E0,0E0,0E0,0E0,0E0,0E0,0E0,0E0,0E0,0E0,0E0,0E0,0E0,0E0,0E0,0E0,0E0,0E0,0E0,0E0,0E0,0E0,0E0,0E0,0E0,0E0,0E0,0E0,0E0,0E0,0E0,0E0,0E0,0E0,0E0,0E0],"parents":[2147483647,0,0,1,1,2,2,3,3,4,4,5,5,6,6,7,7,8,8,9,9,10,10,11,11,12,12,13,13,14,14,15,15,16,16,17,17,18,18,19,19,20,20,21,21,22,22,23,23,24,24,25,25,26,26,27,27,28,28,29,29,30,30,31,31,32,32,35,35,36,36,37,37,38,38,39,39,40,40,41,41,42,42,43,43,44,44,45,45,46,46,47,47,48,48,49,49,50,50,51,51,52,52,53,53,54,54,55,55,56,56,57,57,58,58,59,59,60,60,61,61,62,62],"right_children":[2,4,6,8,10,12,14,16,18,20,22,24,26,28,30,32,34,36,38,40,42,44,46,48,50,52,54,56,58,60,62,64,66,-1,-1,68,70,72,74,76,78,80,82,84,86,88,90,92,94,96,98,100,102,104,106,108,110,112,114,116,118,120,122,-1,-1,-1,-1,-1,-1,-1,-1,-1,-1,-1,-1,-1,-1,-1,-1,-1,-1,-1,-1,-1,-1,-1,-1,-1,-1,-1,-1,-1,-1,-1,-1,-1,-1,-1,-1,-1,-1,-1,-1,-1,-1,-1,-1,-1,-1,-1,-1,-1,-1,-1,-1,-1,-1,-1,-1,-1,-1,-1,-1],"split_conditions":[8.615E-1,1.9594069E0,1.085E-2,1.672E-1,8E0,6.38125E-1,4.01E-2,2.8982288E-1,3.2505086E-1,7.1517744E0,2.2588773E0,2.43821E1,2.3495448E-1,1.6070826E0,3.9532846E-1,1.7249355E-1,3.38E-2,1.152E-1,6.5E0,-1.2517524E-1,3.651E-1,4.75E-2,1.7677791E-1,2.1772049E1,6.271727E-1,1.6350001E-2,1.7717E0,1.2959332E0,1.7176726E0,3.4328368E-1,1.55893E1,1.5675864E0,1.2886E0,4.4926548E-1,9.746229E-2,1.8634739E0,1.4584209E0,3.8414001E0,3.3234102E-1,-1.3908401E-1,7.2055E-1,-4.074593E-2,-4.392198E-2,7.3E1,5.82225E0,1.2781534E-2,2.8E-3,5.333241E-1,6.075674E-1,6.366211E-1,4.636345E1,2.3483673E-1,2.0345936E0,1.08645E0,1.5430841E0,1.2058504E0,1.39413E0,3.2492346E-1,1.9799831E0,2.75085E0,3.9161974E-1,4.1809064E-1,8.6661655E-1,2.0630306E-1,-6.359333E-2,-2.2020727E-1,-6.628965E-2,-1.8951643E-2,1.31373E-1,1.3162183E-2,1.3094881E-1,5.604759E-3,-1.10782884E-1,-4.4245493E-1,-1.21560894E-1,3.8012135E-1,1.2583824E-1,-7.6208715E-3,2.8697588E-2,-1.687345E-1,7.955922E-2,1.06195554E-1,4.921436E-1,7.4780814E-2,-8.074535E-2,1.467731E-1,-7.3876485E-2,-4.8442375E-2,3.9043494E-2,-3.2485107E-1,1.6821828E-2,1.6886996E-1,-3.1310874E-1,-1.7753734E-1,7.672148E-2,2.7841043E-1,-3.815671E-1,-1.6219844E-1,4.21288E-2,2.142781E-2,4.9094877E-1,2.5725478E-1,4.53699E-2,-2.3417708E-1,-3.9170064E-2,2.2793533E-2,-1.583024E-2,6.5466724E-2,2.9922304E-1,-3.653173E-1,7.33632E-2,8.0022603E-1,2.2856896E-1,-1.3710745E-1,2.8884825E-1,-1.1699935E-1,-3.2538116E-1,-7.279013E-2,-2.982156E-1,6.713513E-2,-1.1759809E-2,9.984503E-2,-5.635949E-2],"split_indices":[56,64,43,8,38,64,1,63,63,64,64,44,63,64,64,63,1,27,65,63,30,29,63,12,63,51,46,64,64,64,60,64,32,0,0,64,64,2,63,63,28,63,63,33,25,63,43,63,64,64,12,63,64,20,64,64,64,63,64,2,64,63,64,0,0,0,0,0,0,0,0,0,0,0,0,0,0,0,0,0,0,0,0,0,0,0,0,0,0,0,0,0,0,0,0,0,0,0,0,0,0,0,0,0,0,0,0,0,0,0,0,0,0,0,0,0,0,0,0,0,0,0,0],"split_type":[0,0,0,0,0,0,0,0,0,0,0,0,0,0,0,0,0,0,0,0,0,0,0,0,0,0,0,0,0,0,0,0,0,0,0,0,0,0,0,0,0,0,0,0,0,0,0,0,0,0,0,0,0,0,0,0,0,0,0,0,0,0,0,0,0,0,0,0,0,0,0,0,0,0,0,0,0,0,0,0,0,0,0,0,0,0,0,0,0,0,0,0,0,0,0,0,0,0,0,0,0,0,0,0,0,0,0,0,0,0,0,0,0,0,0,0,0,0,0,0,0,0,0],"sum_hessian":[2.2022E4,6.352E3,1.567E4,2.517E3,3.835E3,1.34E4,2.27E3,7.28E2,1.789E3,2.357E3,1.478E3,2.58E2,1.3142E4,4.46E2,1.824E3,7.22E2,6E0,9.82E2,8.07E2,2.325E3,3.2E1,4.61E2,1.017E3,1.21E2,1.37E2,5.249E3,7.893E3,4.25E2,2.1E1,4.8E1,1.776E3,4.44E2,2.78E2,5E0,1E0,6.25E2,3.57E2,6.34E2,1.73E2,4E0,2.321E3,2.2E1,1E1,1.2E2,3.41E2,9.38E2,7.9E1,6.6E1,5.5E1,4.5E1,9.2E1,5.046E3,2.03E2,1.53E2,7.74E3,3.8E2,4.5E1,9E0,1.2E1,1.9E1,2.9E1,1.338E3,4.38E2,3.5E1,4.09E2,1.41E2,1.37E2,5.47E2,7.8E1,1.52E2,2.05E2,5.93E2,4.1E1,1.3E1,1.6E2,2E0,2E0,1.881E3,4.4E2,5E0,1.7E1,2E0,8E0,4.1E1,7.9E1,3.01E2,4E1,1.83E2,7.55E2,2.5E1,5.4E1,1E0,6.5E1,4.7E1,8E0,4.4E1,1E0,4E1,5.2E1,5.04E3,6E0,8.3E1,1.2E2,1.05E2,4.8E1,5.183E3,2.557E3,3.49E2,3.1E1,1.7E1,2.8E1,5E0,4E0,6E0,6E0,3E0,1.6E1,2.5E1,4E0,4.96E2,8.42E2,3.75E2,6.3E1],"tree_param":{"num_deleted":"0","num_feature":"66","num_nodes":"123","size_leaf_vector":"0"}},{"base_weights":[2.6921408E-2,6.349232E-1,2.6201572E-2,-6.558231E-1,1.2450229E0,-4.4877088E-1,2.7846953E-2,-1.6345689E0,1.0597793E-1,7.8857595E-1,2.2740698E0,-1.0269531E0,-2.897596E-1,9.494119E-2,2.2620546E-2,-7.086187E-1,6.9043094E-1,1.7264103E0,-1.9876126E0,-1.2944367E0,-4.9812612E-1,-1.1220498E0,-1.9541138E-1,1.2579913E-1,-1.0867349E-1,3.635913E-2,-2.594118E-2,-9.5646405E-1,-1.0646403E-1,7.441347E-1,2.756314E0,6.405448E-1,-7.9466206E-1,-3.163668E-1,-1.219913E0,6.39115E-1,-2.5470752E-1,9.792384E-2,3.5129124E-1,7.365193E-2,-5.7346106E-1,1.9945325E-1,1.9666217E-2,-1.8708609E-1,5.378105E-2,1.348727E0,-4.6491265E-2,-3.208363E-2,-9.40761E-1,2.4584377E-2,-4.1150543E-1,1.12714216E-1,-9.009368E-1,2.2433509E-1,9.821769E-1,1.1319971E-1,-1.4080288E0,-4.2890724E-2,-8.6554223E-1,-2.7360573E-1,3.5681638E-1,3.687313E-2,-1.2314049E-1,-2.748945E-1,2.3157991E-1,1.120186E-1,-6.362513E-2],"categories":[],"categories_nodes":[],"categories_segments":[],"categories_sizes":[],"default_left":[1,1,1,1,1,1,1,0,1,1,0,1,1,1,1,1,0,1,0,0,1,1,1,1,1,1,1,0,0,1,0,0,1,0,0,0,1,1,1,1,1,1,1,1,1,0,0,0,0,0,0,0,0,0,0,0,0,0,0,0,0,0,0,0,0,0,0],"id":12,"left_children":[1,3,5,7,9,11,13,-1,15,17,-1,19,21,23,25,27,-1,29,-1,-1,31,33,35,37,39,41,43,-1,-1,45,-1,-1,47,-1,-1,-1,49,51,53,55,57,59,61,63,65,-1,-1,-1,-1,-1,-1,-1,-1,-1,-1,-1,-1,-1,-1,-1,-1,-1,-1,-1,-1,-1,-1],"loss_changes":[9.621997E0,2.1291096E1,1.7204174E1,6.8837137E0,6.661419E0,6.689679E0,7.6854115E0,0E0,3.345813E0,3.98819E1,0E0,1.6184483E0,4.57077E0,9.966148E0,1.3571169E1,3.458947E-1,0E0,9.077076E0,0E0,0E0,2.8726144E0,8.714056E-2,2.933901E0,8.614668E0,1.7753435E1,4.316158E1,5.7640945E1,0E0,0E0,3.4087484E0,0E0,0E0,6.3828826E-1,0E0,0E0,0E0,2.3311136E0,1.8213892E1,1.187398E1,9.007564E0,9.106083E0,1.09676315E2,3.53498E1,5.4655834E1,2.0533146E1,0E0,0E0,0E0,0E0,0E0,0E0,0E0,0E0,0E0,0E0,0E0,0E0,0E0,0E0,0E0,0E0,0E0,0E0,0E0,0E0,0E0,0E0],"parents":[2147483647,0,0,1,1,2,2,3,3,4,4,5,5,6,6,8,8,9,9,11,11,12,12,13,13,14,14,15,15,17,17,20,20,21,21,22,22,23,23,24,24,25,25,26,26,29,29,32,32,36,36,37,37,38,38,39,39,40,40,41,41,42,42,43,43,44,44],"right_children":[2,4,6,8,10,12,14,-1,16,18,-1,20,22,24,26,28,-1,30,-1,-1,32,34,36,38,40,42,44,-1,-1,46,-1,-1,48,-1,-1,-1,50,52,54,56,58,60,62,64,66,-1,-1,-1,-1,-1,-1,-1,-1,-1,-1,-1,-1,-1,-1,-1,-1,-1,-1,-1,-1,-1,-1],"split_conditions":[-1.843791E-1,1.020759E0,-8.290658E-2,-2.920918E-1,-1.9119483E-1,1.3589022E0,-1.8020001E-1,-4.903707E-1,8.667836E-1,-2.2027743E-1,6.8222094E-1,-1.1770779E-1,1.17565E0,1.8908542E0,3.885002E-1,-2.2061947E-1,2.0712928E-1,-2.4855685E-1,-5.962838E-1,-3.8833103E-1,-1.0936843E-1,1.8658755E0,2.3E-3,1.606081E0,7.70255E0,1.294428E0,4.8755E-1,-2.8693923E-1,-3.193921E-2,-2.5630838E-1,8.268942E-1,1.9216344E-1,8.6965877E-1,-9.491004E-2,-3.6597392E-1,1.9173451E-1,-1.1395705E-1,1.5708094E0,3.8865772E-1,3.8727305E0,2.699832E-1,2.8376498E0,3.1479686E-1,1.4295182E0,5.530953E-1,4.046181E-1,-1.394738E-2,-9.625089E-3,-2.8222832E-1,7.3753134E-3,-1.23451635E-1,3.3814266E-2,-2.7028105E-1,6.730053E-2,2.946531E-1,3.3959914E-2,-4.2240867E-1,-1.2867218E-2,-2.596627E-1,-8.208172E-2,1.0704492E-1,1.10619385E-2,-3.694215E-2,-8.246835E-2,6.9473974E-2,3.3605583E-2,-1.9087538E-2],"split_indices":[63,64,63,63,63,64,48,0,64,63,0,63,32,64,63,63,0,63,0,0,63,64,43,64,12,64,27,0,0,63,0,0,64,0,0,0,63,64,63,64,63,19,63,64,63,0,0,0,0,0,0,0,0,0,0,0,0,0,0,0,0,0,0,0,0,0,0],"split_type":[0,0,0,0,0,0,0,0,0,0,0,0,0,0,0,0,0,0,0,0,0,0,0,0,0,0,0,0,0,0,0,0,0,0,0,0,0,0,0,0,0,0,0,0,0,0,0,0,0,0,0,0,0,0,0,0,0,0,0,0,0,0,0,0,0,0,0],"sum_hessian":[2.2022E4,2.5E1,2.1997E4,8E0,1.7E1,7.5E1,2.1922E4,3E0,5E0,1.3E1,4E0,1.5E1,6E1,1.583E3,2.0339E4,2E0,3E0,1E1,3E0,9E0,6E0,5E0,5.5E1,1.375E3,2.08E2,1.5854E4,4.485E3,1E0,1E0,6E0,4E0,1E0,5E0,1E0,4E0,3E0,5.2E1,1.225E3,1.5E2,1.5E2,5.8E1,1.471E3,1.4383E4,1.484E3,3.001E3,3E0,3E0,1E0,4E0,1.9E1,3.3E1,1.208E3,1.7E1,1.26E2,2.4E1,1.47E2,3E0,2.1E1,3.7E1,3.67E2,1.104E3,1.2837E4,1.546E3,1.227E3,2.57E2,2.006E3,9.95E2],"tree_param":{"num_deleted":"0","num_feature":"66","num_nodes":"67","size_leaf_vector":"0"}},{"base_weights":[1.8812919E-2,4.782364E-2,4.466717E-3,1.1760264E-1,2.4843723E-2,-1.6980654E-1,1.8357182E-2,3.1811994E-1,2.0215454E-2,3.5991486E-2,-4.9124286E-1,-5.1291513E-1,-1.8450772E-2,8.599308E-1,1.743008E-2,1.6945082E-1,7.732117E-1,7.931186E-2,-2.2044042E-1,5.9950285E-2,-1.1047459E-1,-5.480249E-1,4.712238E-1,1.7284022E-1,-6.1791885E-1,2.6159853E-1,-3.20761E-1,3.8872546E-1,1.5019512E0,3.9881825E-2,-1.481483E-2,1.9482288E-1,-1.7236377E0,1.4064733E0,5.1857424E-1,9.071262E-2,-1.3129443E0,-3.4661186E-1,5.284668E-1,2.8318757E-1,3.79948E-2,-3.5451528E-1,9.464588E-2,-3.7593147E-1,-8.284765E-1,6.011396E-1,-1.5413547E-1,7.516254E-1,6.45239E-2,-8.946686E-1,-3.6259398E-1,-6.962804E-1,3.721125E-1,-5.7433426E-1,-1.3416837E-1,-6.312887E-1,7.226401E-1,3.7791323E-2,5.459055E-1,-2.7234846E-1,1.0552387E-2,2.672093E-1,-2.1323271E-1,-4.8902225E-1,-1.8727564E0,1.48279E0,-8.2309663E-1,7.7632636E-1,2.6076528E-1,-5.3907216E-2,2.088927E-1,-4.9449837E-1,-1.7051122E0,-4.1841936E-1,9.643777E-1,-7.959019E-3,8.086872E-1,1.0479188E0,1.891602E-1,-7.4705586E-2,7.423835E-2,-5.156118E-1,4.192868E-1,-6.504349E-1,1.5927127E-1,-5.3649986E-1,1.5622279E-1,-1.1331373E0,-5.407794E-1,3.0399984E-1,7.9694605E-1,1.6743243E-1,8.210855E-1,-4.2187488E-1,2.0365503E-1,-1.0566552E0,-6.064474E-1,-8.211826E-1,-4.6164453E-2,-1.1192052E0,5.588969E-1,6.902143E-1,4.461353E-2,-8.1213754E-1,-2.534235E-1,-6.838653E-1,4.5321684E-2,1.9052704E-1,8.682566E-1,1.3220648E-1,2.66334E-2,-8.870824E-3,1.2994498E0,3.0388096E-1,-3.5423508E-1,5.60182E-2,-3.018309E-2],"categories":[],"categories_nodes":[],"categories_segments":[],"categories_sizes":[],"default_left":[1,1,1,1,1,1,1,1,1,1,1,1,1,1,1,1,1,1,1,1,1,1,1,1,1,1,1,1,0,1,1,1,1,1,1,1,1,1,1,1,1,1,1,1,1,1,0,1,1,1,1,1,1,1,1,0,1,1,1,1,1,0,0,0,0,0,0,0,0,0,0,0,0,0,0,0,0,0,0,0,0,0,0,0,0,0,0,0,0,0,0,0,0,0,0,0,0,0,0,0,0,0,0,0,0,0,0,0,0,0,0,0,0,0,0,0,0],"id":13,"left_children":[1,3,5,7,9,11,13,15,17,19,21,23,25,27,29,31,33,35,37,39,41,43,45,47,49,51,53,55,-1,57,59,61,63,65,67,69,71,73,75,77,79,81,83,85,87,89,-1,91,93,95,97,99,101,103,105,-1,107,109,111,113,115,-1,-1,-1,-1,-1,-1,-1,-1,-1,-1,-1,-1,-1,-1,-1,-1,-1,-1,-1,-1,-1,-1,-1,-1,-1,-1,-1,-1,-1,-1,-1,-1,-1,-1,-1,-1,-1,-1,-1,-1,-1,-1,-1,-1,-1,-1,-1,-1,-1,-1,-1,-1,-1,-1,-1,-1],"loss_changes":[9.165619E0,1.1681896E1,3.5677513E1,3.524128E1,3.1562544E1,5.649196E1,1.0635075E1,3.9787262E1,1.7311312E1,1.8843744E1,6.5977364E0,2.4085083E1,6.408821E1,3.9540052E0,9.872435E0,2.1757885E1,2.2652206E1,1.5626806E1,2.2860939E1,2.2603762E1,3.782715E1,4.9975777E0,6.613649E-1,2.7726374E0,2.009665E1,4.1861687E1,1.7145569E1,3.8621707E0,0E0,8.48338E0,3.6574112E1,1.3083096E1,1.8880463E-1,8.196754E0,6.7748947E0,1.6589708E1,1.7245703E0,1.979613E1,5.2675476E0,2.9498814E1,1.7169296E1,4.322279E1,1.989371E1,6.065112E0,2.980877E0,1.0681987E-1,0E0,1.465702E-1,2.7251723E0,5.802124E0,2.2018959E1,2.2390192E1,3.674404E1,1.1546482E1,2.0849342E1,0E0,4.5444918E-1,8.431669E0,1.3807129E1,2.3794754E1,9.441699E0,0E0,0E0,0E0,0E0,0E0,0E0,0E0,0E0,0E0,0E0,0E0,0E0,0E0,0E0,0E0,0E0,0E0,0E0,0E0,0E0,0E0,0E0,0E0,0E0,0E0,0E0,0E0,0E0,0E0,0E0,0E0,0E0,0E0,0E0,0E0,0E0,0E0,0E0,0E0,0E0,0E0,0E0,0E0,0E0,0E0,0E0,0E0,0E0,0E0,0E0,0E0,0E0,0E0,0E0,0E0,0E0],"parents":[2147483647,0,0,1,1,2,2,3,3,4,4,5,5,6,6,7,7,8,8,9,9,10,10,11,11,12,12,13,13,14,14,15,15,16,16,17,17,18,18,19,19,20,20,21,21,22,22,23,23,24,24,25,25,26,26,27,27,29,29,30,30,31,31,32,32,33,33,34,34,35,35,36,36,37,37,38,38,39,39,40,40,41,41,42,42,43,43,44,44,45,45,47,47,48,48,49,49,50,50,51,51,52,52,53,53,54,54,56,56,57,57,58,58,59,59,60,60],"right_children":[2,4,6,8,10,12,14,16,18,20,22,24,26,28,30,32,34,36,38,40,42,44,46,48,50,52,54,56,-1,58,60,62,64,66,68,70,72,74,76,78,80,82,84,86,88,90,-1,92,94,96,98,100,102,104,106,-1,108,110,112,114,116,-1,-1,-1,-1,-1,-1,-1,-1,-1,-1,-1,-1,-1,-1,-1,-1,-1,-1,-1,-1,-1,-1,-1,-1,-1,-1,-1,-1,-1,-1,-1,-1,-1,-1,-1,-1,-1,-1,-1,-1,-1,-1,-1,-1,-1,-1,-1,-1,-1,-1,-1,-1,-1,-1,-1,-1],"split_conditions":[1.23500004E-1,3.0241793E-1,1.1268557E0,1.7176495E0,2.45E1,7.5629E0,1.1291941E0,9.010205E1,2.5006163E-1,1.474757E0,2.2896545E0,8.885E-2,4.5315439E-1,1.1282535E0,8.119E-1,5.30595E0,2.03E-2,6.1675E-1,2.692402E0,3.5826778E-1,1.7039793E0,1.4016945E0,3.06E-2,1.67125E0,6.8219004E0,3.610462E-1,5.99E-2,3.7000002E-3,4.505854E-1,5.418728E0,1.608289E0,8.4295E-1,2.4744363E-1,1.71215E0,1.5208162E0,2.39E-1,1.8741044E-1,3.45055E0,1.5E-1,1.265E-2,1.442E0,4.328127E-1,3.104478E-1,2.0495E-1,1.6836734E0,3.4169716E-1,-4.6240643E-2,8.32E-2,3.4773216E-1,7.1E-3,1.0296425E0,2.53477E1,4.1725206E-1,1.2715E0,7.514007E-1,-1.8938662E-1,3.185E-2,1.2909442E0,3.267E-1,1.7245582E-1,6.45E1,8.016279E-2,-6.396981E-2,-1.4670669E-1,-5.6182694E-1,4.44837E-1,-2.46929E-1,2.3289792E-1,7.822959E-2,-1.6172165E-2,6.266782E-2,-1.4834952E-1,-5.115337E-1,-1.2552582E-1,2.8931332E-1,-2.387706E-3,2.4260618E-1,3.1437564E-1,5.6748062E-2,-2.2411676E-2,2.2271506E-2,-1.5468356E-1,1.2578604E-1,-1.9513048E-1,4.778138E-2,-1.6094996E-1,4.6866838E-2,-3.399412E-1,-1.6223383E-1,9.119996E-2,2.3908383E-1,5.0229732E-2,2.4632566E-1,-1.2656248E-1,6.109651E-2,-3.1699657E-1,-1.8193422E-1,-2.4635479E-1,-1.3849337E-2,-3.3576158E-1,1.6766907E-1,2.0706429E-1,1.3384059E-2,-2.4364127E-1,-7.602706E-2,-2.051596E-1,1.3596506E-2,5.7158113E-2,2.60477E-1,3.9661948E-2,7.99002E-3,-2.6612473E-3,3.8983497E-1,9.116429E-2,-1.0627053E-1,1.680546E-2,-9.054927E-3],"split_indices":[62,63,64,64,33,12,64,7,63,64,64,27,63,64,54,45,51,49,64,63,64,64,0,32,12,63,0,3,0,64,64,54,63,20,64,49,63,32,55,58,28,63,63,27,64,63,0,3,63,43,64,7,63,24,64,0,1,64,30,63,40,0,0,0,0,0,0,0,0,0,0,0,0,0,0,0,0,0,0,0,0,0,0,0,0,0,0,0,0,0,0,0,0,0,0,0,0,0,0,0,0,0,0,0,0,0,0,0,0,0,0,0,0,0,0,0,0],"split_type":[0,0,0,0,0,0,0,0,0,0,0,0,0,0,0,0,0,0,0,0,0,0,0,0,0,0,0,0,0,0,0,0,0,0,0,0,0,0,0,0,0,0,0,0,0,0,0,0,0,0,0,0,0,0,0,0,0,0,0,0,0,0,0,0,0,0,0,0,0,0,0,0,0,0,0,0,0,0,0,0,0,0,0,0,0,0,0,0,0,0,0,0,0,0,0,0,0,0,0,0,0,0,0,0,0,0,0,0,0,0,0,0,0,0,0,0,0],"sum_hessian":[2.2022E4,7.286E3,1.4736E4,1.804E3,5.482E3,1.087E3,1.3649E4,5.89E2,1.215E3,5.367E3,1.15E2,3.32E2,7.55E2,1.4E1,1.3635E4,4.45E2,1.44E2,9.76E2,2.39E2,4.613E3,7.54E2,1.09E2,6E0,4.4E1,2.88E2,3.92E2,3.63E2,9E0,5E0,8.038E3,5.597E3,4.4E2,5E0,4E1,1.04E2,9.69E2,7E0,2.05E2,3.4E1,4.12E2,4.201E3,3.44E2,4.1E2,6.9E1,4E1,5E0,1E0,6E0,3.8E1,1.37E2,1.51E2,4E1,3.52E2,1.53E2,2.1E2,2E0,7E0,8.006E3,3.2E1,5.01E2,5.096E3,3.74E2,6.6E1,1E0,4E0,3.9E1,1E0,5.1E1,5.3E1,4.36E2,5.33E2,3E0,4E0,1.95E2,1E1,1.2E1,2.2E1,4.4E1,3.68E2,1.022E3,3.179E3,2.85E2,5.9E1,3.2E1,3.78E2,5.3E1,1.6E1,1.8E1,2.2E1,3E0,2E0,1E0,5E0,8E0,3E1,8.6E1,5.1E1,6.1E1,9E1,3E1,1E1,1.78E2,1.74E2,8.7E1,6.6E1,5.1E1,1.59E2,2E0,5E0,8.45E2,7.161E3,1.9E1,1.3E1,6.2E1,4.39E2,2.408E3,2.688E3],"tree_param":{"num_deleted":"0","num_feature":"66","num_nodes":"117","size_leaf_vector":"0"}},{"base_weights":[1.314583E-2,-2.958541E-3,3.2848578E-2,-6.044228E-3,3.4679997E-1,7.046463E-2,-2.7474258E-2,-3.9724302E-3,-1.2483028E0,2.592812E-2,9.9697065E-1,3.1226447E-1,2.4074415E-2,2.4020905E-3,-4.9839926E-1,5.9370273E-1,-6.674698E-3,-1.9954962E0,1.2192413E-1,1.3162528E-1,-1.8038299E0,1.4890074E0,3.88402E-1,9.862651E-3,5.733327E-1,8.3189465E-2,-6.894734E-2,-1.1860387E-2,4.066418E-1,-6.216589E-1,1.9552965E-1,1.73355E0,1.9000603E-1,-1.9713583E0,-5.3572166E-3,-3.7923345E-1,-2.2548864E0,-4.099443E-1,1.9225016E0,1.0813072E0,7.207448E-2,1.7668513E0,-5.817777E-1,-1.1910057E-1,5.056597E-1,9.756044E-2,-9.0463334E-1,6.9228506E-1,-4.600818E-1,2.7751556E-1,-9.748487E-3,-1.1249412E-1,1.2458399E-1,4.6227608E-2,-1.8338898E-1,-7.4792427E-1,4.9422473E-1,-3.6297998E-1,-8.305465E-1,-4.1814166E-1,4.5772386E-1,1.9955822E0,1.0757073E-1,-1.333729E-1,8.2319206E-1,-2.1820269E0,-2.4833965E-1,-6.207744E-3,1.6866678E0,-4.8461974E-1,-8.423042E-2,1.2111676E-1,-5.186406E-1,1.2739693E0,2.5166035E-1,-8.165427E-1,1.582979E-1,6.400665E-1,2.491594E0,1.3757706E-2,-1.6797256E-1,3.1178525E-1,-2.6656014E-1,-1.2479701E0,4.8328438E-4,3.1915835E-1,8.2979536E-1,-1.9582364E-1,-1.091972E0,-1.2738644E-1,3.861218E-1,1.8658851E-1,-6.309636E-2,-2.2699766E-1,3.3920057E-2,2.3477297E-1,-1.4790569E-1,4.975865E-1,-1.93869E-2,-2.5622234E-1,2.2128066E-1,7.6157373E-1,-1.2880056E0,-7.9766494E-1,5.4845405E-1,-2.0724605E-1,-8.8211304E-1,-1.3414229E0,-5.598128E-1,-5.96702E-1,2.5691974E-1,9.683548E-1,-8.811665E-2],"categories":[],"categories_nodes":[],"categories_segments":[],"categories_sizes":[],"default_left":[1,1,1,1,1,1,1,1,1,1,1,1,1,1,1,1,1,1,1,1,0,1,1,1,1,1,1,1,1,1,1,1,1,1,1,1,0,1,0,1,1,1,0,1,0,1,1,1,1,1,1,1,1,1,1,1,1,1,1,1,1,0,0,0,0,0,0,0,0,0,0,0,0,0,0,0,0,0,0,0,0,0,0,0,0,0,0,0,0,0,0,0,0,0,0,0,0,0,0,0,0,0,0,0,0,0,0,0,0,0,0,0,0],"id":14,"left_children":[1,3,5,7,9,11,13,15,17,19,21,23,25,27,29,31,33,35,37,39,-1,41,43,45,47,49,51,53,55,57,59,61,63,65,67,69,-1,71,-1,73,75,77,-1,79,-1,81,83,85,87,89,91,93,95,97,99,101,103,105,107,109,111,-1,-1,-1,-1,-1,-1,-1,-1,-1,-1,-1,-1,-1,-1,-1,-1,-1,-1,-1,-1,-1,-1,-1,-1,-1,-1,-1,-1,-1,-1,-1,-1,-1,-1,-1,-1,-1,-1,-1,-1,-1,-1,-1,-1,-1,-1,-1,-1,-1,-1,-1,-1],"loss_changes":[6.9880023E0,1.30814705E1,2.247744E1,3.091558E1,2.208803E1,6.842829E1,5.353572E1,1.9376827E1,2.0719782E1,1.4162247E1,9.901997E0,7.7520805E1,2.8160543E1,2.0639406E1,1.9537636E1,2.451885E1,3.0900526E1,4.5950317E0,8.449481E0,3.8243132E0,0E0,1.1959663E1,1.0718706E0,3.6659122E1,6.5101074E1,5.6549408E1,1.6785072E1,3.4463135E1,1.2706316E1,1.0127251E1,5.8229303E0,5.75016E0,8.504911E0,2.3619995E0,1.7186295E1,5.2448094E-2,0E0,4.6688664E-1,0E0,3.187585E-1,5.1861515E0,1.2287907E1,0E0,2.8283112E-2,0E0,3.2610638E1,1.2431E1,2.4004211E1,8.970183E0,4.459575E1,2.2206524E1,2.725073E1,1.1024007E1,7.653659E1,2.584596E1,8.318176E0,8.424128E0,6.9316893E0,1.3910065E1,1.4792353E0,7.053404E0,0E0,0E0,0E0,0E0,0E0,0E0,0E0,0E0,0E0,0E0,0E0,0E0,0E0,0E0,0E0,0E0,0E0,0E0,0E0,0E0,0E0,0E0,0E0,0E0,0E0,0E0,0E0,0E0,0E0,0E0,0E0,0E0,0E0,0E0,0E0,0E0,0E0,0E0,0E0,0E0,0E0,0E0,0E0,0E0,0E0,0E0,0E0,0E0,0E0,0E0,0E0,0E0],"parents":[2147483647,0,0,1,1,2,2,3,3,4,4,5,5,6,6,7,7,8,8,9,9,10,10,11,11,12,12,13,13,14,14,15,15,16,16,17,17,18,18,19,19,21,21,22,22,23,23,24,24,25,25,26,26,27,27,28,28,29,29,30,30,31,31,32,32,33,33,34,34,35,35,37,37,39,39,40,40,41,41,43,43,45,45,46,46,47,47,48,48,49,49,50,50,51,51,52,52,53,53,54,54,55,55,56,56,57,57,58,58,59,59,60,60],"right_children":[2,4,6,8,10,12,14,16,18,20,22,24,26,28,30,32,34,36,38,40,-1,42,44,46,48,50,52,54,56,58,60,62,64,66,68,70,-1,72,-1,74,76,78,-1,80,-1,82,84,86,88,90,92,94,96,98,100,102,104,106,108,110,112,-1,-1,-1,-1,-1,-1,-1,-1,-1,-1,-1,-1,-1,-1,-1,-1,-1,-1,-1,-1,-1,-1,-1,-1,-1,-1,-1,-1,-1,-1,-1,-1,-1,-1,-1,-1,-1,-1,-1,-1,-1,-1,-1,-1,-1,-1,-1,-1,-1,-1,-1,-1],"split_conditions":[6.419415E1,6.9586635E-1,3.9315647E-1,6.832664E-1,1.9104688E-1,1.3176904E0,1.0292001E0,2.0030041E-1,2.2047842E-1,1.8177387E-1,8.529619E-1,6.57885E0,2.877404E-1,1.6638427E0,1.5337844E0,6.250173E-1,2.0895283E-1,1.2474755E-1,5.315393E-1,7.1215177E-1,-5.41149E-1,9.55E-2,9.110732E-1,1.8135E-1,9.7183E0,1.8516331E0,3.4205499E0,1.089452E0,3.953578E-1,1.2198E0,4.0331715E-1,1.777207E-1,1.7680551E-1,6.6603947E-1,6.721802E-1,6.8489045E-1,-6.764659E-1,3.2752413E-1,5.767505E-1,1.6575965E-1,7.216437E-1,2.1357834E-1,-1.7453331E-1,8.9166546E-1,1.5169792E-1,3.53162E-1,2.9914E0,1.3988E0,1.532E-1,1.2295E-1,1.4310807E-1,1.7636814E0,1.7711442E0,4.4048512E-1,4.9068078E-1,4.625E-2,2.8605002E-1,1.2059493E0,1.029913E0,7.752E-1,4.995E-2,5.986747E-1,3.227122E-2,-4.001187E-2,2.4695763E-1,-6.546081E-1,-7.45019E-2,-1.8623233E-3,5.0600034E-1,-1.4538592E-1,-2.5269128E-2,3.633503E-2,-1.5559217E-1,3.821908E-1,7.5498104E-2,-2.4496281E-1,4.748937E-2,1.9201995E-1,7.4747825E-1,4.127312E-3,-5.039177E-2,9.353558E-2,-7.996804E-2,-3.7439105E-1,1.4498532E-4,9.574751E-2,2.4893862E-1,-5.8747094E-2,-3.275916E-1,-3.821593E-2,1.15836546E-1,5.5976555E-2,-1.8928908E-2,-6.80993E-2,1.0176018E-2,7.0431896E-2,-4.437171E-2,1.4927596E-1,-5.8160704E-3,-7.68667E-2,6.6384204E-2,2.2847213E-1,-3.8640168E-1,-2.3929949E-1,1.6453622E-1,-6.2173817E-2,-2.6463392E-1,-4.024269E-1,-1.6794384E-1,-1.790106E-1,7.707593E-2,2.9050645E-1,-2.6434997E-2],"split_indices":[18,63,63,63,64,64,61,64,64,64,63,12,63,64,64,63,64,64,64,63,0,0,63,62,60,64,45,64,63,20,63,64,64,63,63,63,0,64,0,64,63,64,0,63,0,63,45,28,9,27,63,64,64,63,63,0,49,64,64,54,1,0,0,0,0,0,0,0,0,0,0,0,0,0,0,0,0,0,0,0,0,0,0,0,0,0,0,0,0,0,0,0,0,0,0,0,0,0,0,0,0,0,0,0,0,0,0,0,0,0,0,0,0],"split_type":[0,0,0,0,0,0,0,0,0,0,0,0,0,0,0,0,0,0,0,0,0,0,0,0,0,0,0,0,0,0,0,0,0,0,0,0,0,0,0,0,0,0,0,0,0,0,0,0,0,0,0,0,0,0,0,0,0,0,0,0,0,0,0,0,0,0,0,0,0,0,0,0,0,0,0,0,0,0,0,0,0,0,0,0,0,0,0,0,0,0,0,0,0,0,0,0,0,0,0,0,0,0,0,0,0,0,0,0,0,0,0,0,0],"sum_hessian":[2.2022E4,1.2118E4,9.904E3,1.2013E4,1.05E2,6.1E3,3.804E3,1.1994E4,1.9E1,7.1E1,3.4E1,9.81E2,5.119E3,3.578E3,2.26E2,5.3E1,1.1941E4,1.2E1,7E0,6.8E1,3E0,1.8E1,1.6E1,4.55E2,5.26E2,3.13E3,1.989E3,3.457E3,1.21E2,1.92E2,3.4E1,1.3E1,4E1,7E0,1.1934E4,2E0,1E1,6E0,1E0,3E0,6.5E1,1.6E1,2E0,3E0,1.3E1,4.16E2,3.9E1,4.72E2,5.4E1,1.012E3,2.118E3,1.624E3,3.65E2,2.583E3,8.74E2,8E0,1.13E2,8.7E1,1.05E2,1E1,2.4E1,1.1E1,2E0,2.7E1,1.3E1,6E0,1E0,1.1929E4,5E0,1E0,1E0,1E0,5E0,2E0,1E0,5E0,6E1,7E0,9E0,1E0,2E0,2.62E2,1.54E2,2.8E1,1.1E1,1.28E2,3.44E2,3.9E1,1.5E1,2.14E2,7.98E2,4.52E2,1.666E3,9.11E2,7.13E2,2.6E2,1.05E2,3.27E2,2.256E3,7.41E2,1.33E2,2E0,6E0,4E0,1.09E2,6.8E1,1.9E1,3.5E1,7E1,8E0,2E0,1.2E1,1.2E1],"tree_param":{"num_deleted":"0","num_feature":"66","num_nodes":"113","size_leaf_vector":"0"}},{"base_weights":[9.186549E-3,1.12513825E-2,-1.3044666E-1,6.49157E-2,5.608118E-3,-8.563762E-1,-8.4495805E-2,-2.0426467E-1,9.992665E-2,1.4398598E-2,-1.013966E-1,-4.687667E-3,-1.622427E0,-4.8407906E-1,2.1521589E-3,-3.7741393E-1,1.9227016E-1,1.896819E-1,-3.5027098E-2,8.0491346E-1,1.3220079E-2,-1.5399826E-1,4.696769E-1,-5.104224E-1,6.0313153E-1,-1.9402609E0,-6.606111E-1,-9.4815505E-1,-2.637272E-1,4.7381565E-1,-8.462628E-2,-8.3598524E-1,-3.1948307E-1,7.303201E-1,1.5892137E-2,3.2001278E-1,2.790828E-2,1.10393755E-1,-2.7939758E-1,-4.6545768E-1,1.2728163E0,1.4744255E-2,-5.3800327E-1,-3.1769338E-1,4.5821626E-2,7.4442744E-2,8.056936E-1,2.1706073E-1,-9.284291E-1,7.19762E-1,6.830478E-2,-1.0586742E0,-7.9507746E-2,1.321675E-1,-7.605481E-1,-6.787461E-1,6.249297E-1,2.9048792E-1,-1.874444E-1,-6.081268E-1,-1.6756071E-1,-1.1243469E0,9.055562E-1,8.9143716E-2,-7.491027E-1,8.3532906E-1,2.0324126E-1,-1.7891145E-1,3.5369274E-1,3.235464E-1,1.3891469E-2,-2.4655674E-1,-1.118456E0,-6.836498E-1,1.2607908E-1,4.4998538E-1,2.0506487E0,6.1383326E-2,2.9501137E-3,-7.419688E-1,1.0814052E0,-4.8931134E-1,-3.215803E-2,1.7737171E-1,-1.07583456E-1,-1.4067619E-1,4.17267E-1,2.461435E0,6.9140655E-1,4.1279554E-1,-8.720446E-2,2.737062E-1,-1.4200727E0,-5.2609134E-1,-1.0203305E0,3.480276E-1,-1.0224464E0,3.403136E-1,1.3024387E0,1.462073E-1,8.6739624E-1,-5.75529E-1,-8.018312E-2],"categories":[],"categories_nodes":[],"categories_segments":[],"categories_sizes":[],"default_left":[1,1,1,1,1,1,1,1,1,1,1,1,1,1,1,1,1,1,1,1,1,1,1,1,1,0,0,1,1,1,1,0,1,1,1,1,1,1,1,1,1,1,1,1,1,1,1,1,0,0,0,0,0,1,1,1,1,1,1,0,0,0,0,0,0,0,0,0,0,0,0,0,0,0,0,0,0,0,0,0,0,0,0,0,0,0,0,0,0,0,0,0,0,0,0,0,0,0,0,0,0,0,0],"id":15,"left_children":[1,3,5,7,9,11,13,15,17,19,21,23,25,27,29,31,33,35,37,39,41,43,45,47,49,-1,-1,51,53,55,57,-1,59,61,63,65,67,69,71,73,75,77,79,81,83,85,87,89,-1,-1,-1,-1,-1,91,93,95,97,99,101,-1,-1,-1,-1,-1,-1,-1,-1,-1,-1,-1,-1,-1,-1,-1,-1,-1,-1,-1,-1,-1,-1,-1,-1,-1,-1,-1,-1,-1,-1,-1,-1,-1,-1,-1,-1,-1,-1,-1,-1,-1,-1,-1,-1],"loss_changes":[6.3511224E0,6.572215E0,1.0635262E1,1.948151E1,1.8474352E1,1.2388694E1,1.0491834E1,1.6413578E1,2.2148855E1,1.6897636E1,4.4861095E1,3.3818047E0,1.775217E0,5.271986E0,1.0272653E1,4.1427784E0,6.916106E0,2.3141407E1,2.6008072E1,1.6641516E1,1.5234173E1,4.4695793E1,1.667349E1,2.0260823E0,2.6272202E-1,0E0,0E0,1.547863E0,7.574693E0,7.216733E0,8.23098E0,0E0,6.431967E0,6.868243E0,3.204854E0,3.6416176E1,3.31462E1,9.437006E0,7.2468586E0,1.1187432E0,1.1877731E1,9.941743E0,1.7317543E1,3.6785515E1,1.245024E1,4.409831E0,1.1165775E1,2.1466346E-1,0E0,0E0,0E0,0E0,0E0,5.222128E0,4.9864483E-1,2.1203518E0,6.305812E0,3.7020676E0,6.9054694E0,0E0,0E0,0E0,0E0,0E0,0E0,0E0,0E0,0E0,0E0,0E0,0E0,0E0,0E0,0E0,0E0,0E0,0E0,0E0,0E0,0E0,0E0,0E0,0E0,0E0,0E0,0E0,0E0,0E0,0E0,0E0,0E0,0E0,0E0,0E0,0E0,0E0,0E0,0E0,0E0,0E0,0E0,0E0,0E0],"parents":[2147483647,0,0,1,1,2,2,3,3,4,4,5,5,6,6,7,7,8,8,9,9,10,10,11,11,12,12,13,13,14,14,15,15,16,16,17,17,18,18,19,19,20,20,21,21,22,22,23,23,24,24,27,27,28,28,29,29,30,30,32,32,33,33,34,34,35,35,36,36,37,37,38,38,39,39,40,40,41,41,42,42,43,43,44,44,45,45,46,46,47,47,53,53,54,54,55,55,56,56,57,57,58,58],"right_children":[2,4,6,8,10,12,14,16,18,20,22,24,26,28,30,32,34,36,38,40,42,44,46,48,50,-1,-1,52,54,56,58,-1,60,62,64,66,68,70,72,74,76,78,80,82,84,86,88,90,-1,-1,-1,-1,-1,92,94,96,98,100,102,-1,-1,-1,-1,-1,-1,-1,-1,-1,-1,-1,-1,-1,-1,-1,-1,-1,-1,-1,-1,-1,-1,-1,-1,-1,-1,-1,-1,-1,-1,-1,-1,-1,-1,-1,-1,-1,-1,-1,-1,-1,-1,-1,-1],"split_conditions":[8.481E-1,7.5E0,2.4575333E-1,4.9398673E-1,4.5982954E-1,2.2161482E-1,7.665918E-1,7.613085E1,8.9022505E-1,7.728447E-1,1.2566202E0,1.6955762E0,2.3615022E0,4.9863997E0,8.717215E-1,3.4368145E-1,6.909069E-1,6.0153615E-1,3.2396998E0,1.01521194E-1,4.21255E0,2.78E-2,3.383E-1,1.9986361E-1,3.85E-2,-5.820783E-1,-1.9818334E-1,7.502476E-1,5.906563E-1,4.7111613E-1,3.2063878E-1,-2.5079557E-1,9.9364996E-1,6.5346503E-1,7.686634E-1,9.15E-3,1.9045999E0,1.0111079E0,2.5881E0,7.2969496E-1,6.322758E-1,6.7999996E-3,1.4468926E0,1.225975E1,3.21E-2,4.980836E-1,3.20805E0,1.9307476E-1,-2.7852875E-1,2.1592861E-1,2.0491434E-2,-3.1760228E-1,-2.3852324E-2,7.587422E-1,6.1074114E-1,2.4E-3,8.3595645E-1,3.113501E-1,3.0949999E-2,-1.8243805E-1,-5.0268214E-2,-3.3730406E-1,2.7166688E-1,2.6743116E-2,-2.2473082E-1,2.5059873E-1,6.097238E-2,-5.3673435E-2,1.0610782E-1,9.706393E-2,4.167441E-3,-7.3967025E-2,-3.355368E-1,-2.0509495E-1,3.7823725E-2,1.3499562E-1,6.151946E-1,1.8414998E-2,8.8503415E-4,-2.2259066E-1,3.2442155E-1,-1.4679341E-1,-9.6474085E-3,5.3211514E-2,-3.227504E-2,-4.2202856E-2,1.2518011E-1,7.3843056E-1,2.0742197E-1,1.2383867E-1,-2.6161337E-2,8.2111865E-2,-4.260218E-1,-1.578274E-1,-3.0609918E-1,1.0440828E-1,-3.0673394E-1,1.0209409E-1,3.9073163E-1,4.3862194E-2,2.602189E-1,-1.726587E-1,-2.4054937E-2],"split_indices":[49,33,63,64,63,63,64,12,64,64,64,64,64,10,64,64,63,63,28,63,23,58,27,63,1,0,0,64,63,63,63,0,24,63,63,50,55,64,27,64,64,53,64,12,58,63,2,63,0,0,0,0,0,64,63,3,64,63,1,0,0,0,0,0,0,0,0,0,0,0,0,0,0,0,0,0,0,0,0,0,0,0,0,0,0,0,0,0,0,0,0,0,0,0,0,0,0,0,0,0,0,0,0],"split_type":[0,0,0,0,0,0,0,0,0,0,0,0,0,0,0,0,0,0,0,0,0,0,0,0,0,0,0,0,0,0,0,0,0,0,0,0,0,0,0,0,0,0,0,0,0,0,0,0,0,0,0,0,0,0,0,0,0,0,0,0,0,0,0,0,0,0,0,0,0,0,0,0,0,0,0,0,0,0,0,0,0,0,0,0,0,0,0,0,0,0,0,0,0,0,0,0,0,0,0,0,0,0,0],"sum_hessian":[2.2022E4,2.1702E4,3.2E2,2.064E3,1.9638E4,1.8E1,3.02E2,2.37E2,1.827E3,1.8148E4,1.49E3,9E0,9E0,5.3E1,2.49E2,1.65E2,7.2E1,1.097E3,7.3E2,2.6E1,1.8122E4,1.365E3,1.25E2,5E0,4E0,6E0,3E0,1.6E1,3.7E1,3.8E1,2.11E2,1.7E1,1.48E2,1.7E1,5.5E1,6.07E2,4.9E2,4.58E2,2.72E2,7E0,1.9E1,1.8073E4,4.9E1,7.5E2,6.15E2,5.8E1,6.7E1,2E0,3E0,3E0,1E0,1.4E1,2E0,2.1E1,1.6E1,4E0,3.4E1,4.5E1,1.66E2,5E1,9.8E1,1E0,1.6E1,5.1E1,4E0,1.11E2,4.96E2,3E2,1.9E2,1.42E2,3.16E2,2.63E2,9E0,5E0,2E0,1E1,9E0,3.647E3,1.4426E4,4.4E1,5E0,4.68E2,2.82E2,3.31E2,2.84E2,3.6E1,2.2E1,3E0,6.4E1,1E0,1E0,2E1,1E0,1E1,6E0,1E0,3E0,2.5E1,9E0,3.7E1,8E0,3.5E1,1.31E2],"tree_param":{"num_deleted":"0","num_feature":"66","num_nodes":"103","size_leaf_vector":"0"}},{"base_weights":[6.404712E-3,4.4228654E-2,8.749771E-4,-5.126682E-1,4.961564E-2,1.04812775E-2,-2.9362354E-2,-6.596539E-1,-1.9682704E-1,2.0958753E-2,1.345359E-1,-3.4647566E-1,1.3118834E-2,-4.668406E-2,3.8271782E-1,6.354945E-1,-4.8434424E-1,8.3386816E-2,-1.06479764E-1,2.0483382E-1,-2.891136E-2,-5.0114475E-2,-1.1808478E0,1.7257756E0,1.2289471E-2,-2.626019E-1,6.791406E-4,5.262821E-1,-2.5579795E-1,8.735482E-1,7.9693496E-2,-6.251693E-2,-6.1453384E-1,5.48999E-1,6.246066E-2,-5.4960147E-2,-4.379599E-1,4.165831E-1,1.6638745E-2,-1.11204654E-1,3.068283E-1,1.0883076E0,-1.917212E-1,-4.6171197E-1,-1.4454165E0,2.3079443E-1,1.9364734E0,9.174266E-2,1.8326726E-3,-4.356024E-1,-5.2077536E-2,-4.2246196E-1,8.954971E-3,7.057057E-1,1.425553E-1,-5.19696E-1,3.6722475E-1,9.45391E-2,9.7108924E-1,5.4347977E-2,1.2552967E0,-1.7663542E0,-4.6194702E-2,-5.5306077E-1,1.433355E-1,8.327546E-1,2.9103187E-1,-9.74641E-1,5.5909216E-2,-4.263742E-1,3.7902433E-2,6.7853594E-1,5.198758E-2,1.1886445E0,1.4280623E-1,8.4494844E-2,-8.2332563E-1,-8.095301E-1,1.7544317E-1,-1.5752099E0,-1.8485014E-1,-2.7585497E-1,2.1381485E-1,1.4517461E-2,-1.05217054E-1,-5.5107856E-1,3.4795833E-1,-1.8663968E-1,9.600851E-2,4.0073287E-1,-6.542557E-1,-1.4835222E0,1.1039847E-2,5.1319146E-1,1.0008987E0,-1.392774E-1,5.0758225E-1,-9.6596E-1,-1.5778933E-1,9.767857E-2,1.053455E0],"categories":[],"categories_nodes":[],"categories_segments":[],"categories_sizes":[],"default_left":[1,1,1,1,1,1,1,0,1,1,1,1,1,1,1,1,1,1,1,1,1,1,1,1,1,1,1,1,1,0,0,0,0,1,1,1,1,1,1,1,1,1,1,1,1,0,0,1,1,1,1,1,1,1,1,1,1,0,0,0,0,0,0,0,0,0,0,0,0,0,0,0,0,0,0,0,0,0,0,0,0,0,0,0,0,0,0,0,0,0,0,0,0,0,0,0,0,0,0,0,0],"id":16,"left_children":[1,3,5,7,9,11,13,-1,15,17,19,21,23,25,27,29,31,33,35,37,39,41,43,45,47,49,51,53,55,-1,-1,-1,-1,57,59,61,63,65,67,69,71,73,75,77,79,-1,-1,81,83,85,87,89,91,93,95,97,99,-1,-1,-1,-1,-1,-1,-1,-1,-1,-1,-1,-1,-1,-1,-1,-1,-1,-1,-1,-1,-1,-1,-1,-1,-1,-1,-1,-1,-1,-1,-1,-1,-1,-1,-1,-1,-1,-1,-1,-1,-1,-1,-1,-1],"loss_changes":[4.606212E0,8.452425E0,5.5816674E0,1.1236138E0,6.7697506E0,1.3734355E1,3.3087906E1,0E0,2.7008657E0,1.657273E1,8.071904E0,2.63993E1,2.0542135E1,4.547769E1,1.7276552E1,3.2731545E-1,4.0092158E-1,1.358708E1,1.1674175E1,1.9559504E1,5.8914948E0,1.310531E1,4.659935E0,1.7579975E0,1.2022715E1,2.9113976E1,1.2778511E1,1.0433392E1,5.945352E0,0E0,0E0,0E0,0E0,1.1417582E1,1.288942E1,8.829073E0,6.2347755E0,1.1827583E1,1.0214706E1,8.052137E0,3.9432273E0,6.840725E-1,1.2630634E1,2.1365533E0,2.9810867E0,0E0,0E0,7.558099E1,1.736775E1,3.9913597E1,7.2314124E0,1.3618979E1,1.1152899E1,5.396553E0,5.214521E0,3.8852296E0,1.9317784E0,0E0,0E0,0E0,0E0,0E0,0E0,0E0,0E0,0E0,0E0,0E0,0E0,0E0,0E0,0E0,0E0,0E0,0E0,0E0,0E0,0E0,0E0,0E0,0E0,0E0,0E0,0E0,0E0,0E0,0E0,0E0,0E0,0E0,0E0,0E0,0E0,0E0,0E0,0E0,0E0,0E0,0E0,0E0,0E0],"parents":[2147483647,0,0,1,1,2,2,3,3,4,4,5,5,6,6,8,8,9,9,10,10,11,11,12,12,13,13,14,14,15,15,16,16,17,17,18,18,19,19,20,20,21,21,22,22,23,23,24,24,25,25,26,26,27,27,28,28,33,33,34,34,35,35,36,36,37,37,38,38,39,39,40,40,41,41,42,42,43,43,44,44,47,47,48,48,49,49,50,50,51,51,52,52,53,53,54,54,55,55,56,56],"right_children":[2,4,6,8,10,12,14,-1,16,18,20,22,24,26,28,30,32,34,36,38,40,42,44,46,48,50,52,54,56,-1,-1,-1,-1,58,60,62,64,66,68,70,72,74,76,78,80,-1,-1,82,84,86,88,90,92,94,96,98,100,-1,-1,-1,-1,-1,-1,-1,-1,-1,-1,-1,-1,-1,-1,-1,-1,-1,-1,-1,-1,-1,-1,-1,-1,-1,-1,-1,-1,-1,-1,-1,-1,-1,-1,-1,-1,-1,-1,-1,-1,-1,-1,-1,-1],"split_conditions":[8.405E-2,3.4328368E-1,3.5358512E-1,5.18775E0,3.05685E0,1.0902244E0,1.8297844E0,-1.9789618E-1,7.582407E-1,5.0228137E-1,6.415874E-1,9.894E-1,-2.2027743E-1,2.3835E0,8.0474997E-1,2.546E-1,7.6487744E-1,8.565692E-1,8.122E-1,7.7804357E-1,1.00317E2,3.4500002E-3,1.0204554E0,-2.6340753E-1,1.4268043E0,1.88E-2,7.6115E-1,1.077E-1,4.1792896E-1,2.620645E-1,2.390805E-2,-1.8755078E-2,-1.8436016E-1,1.613505E1,